svm_type epsilon_svr
kernel_type linear
nr_class 2
total_sv 49
rho 0.0248131
SV
0.2845172522213646 21:0.03101483 40:0.0091311187 47:0.091311179 49:0.023420298 55:0.062217239 89:0.023420298 95:0.036524475 96:0.016630875 157:0.02177052 170:0.016630875 173:0.023420298 197:0.023420298 200:0.020739079 217:0.030005354 219:0.049439516 223:0.02000357 251:0.015507415 258:0.016630875 272:0.082399197 343:0.023420298 413:0.020739079 418:0.028979 423:0.03101483 444:0.046840597 447:0.018262237 507:0.016630875 536:0.016479841 549:0.015507415 558:0.020739079 800:0.020739079 801:0.0083599603 806:0.015507415 811:0.046522245 819:0.020739079 821:0.023420298 826:0.016630875 862:0.020924255 874:0.03101483 885:0.046840597 889:0.023420298 890:0.1004423 892:0.11870454 905:0.039900135 920:0.015507415 926:0.03326175 934:0.02177052 984:0.016630875 986:0.016630875 1015:0.020739079 1017:0.015507415 1020:0.02177052 1033:0.023420298 1053:0.073234893 1061:0.016630875 1063:0.020739079 1064:0.020739079 1088:0.02177052 1090:0.046522245 1091:0.02177052 1094:0.046522245 1099:0.018262237 1102:0.020739079 1202:0.046522245 1211:0.02177052 1224:0.03101483 1231:0.023420298 1241:0.0082399203 1249:0.041478157 1254:0.02177052 1262:0.03101483 1281:0.030005354 1299:0.02177052 1313:0.04354104 1332:0.020739079 1339:0.015507415 1349:0.020739079 1368:0.016479841 1372:0.03101483 1381:0.023420298 1450:0.023420298 1464:0.03326175 1473:0.03326175 1475:0.020739079 1476:0.015507415 1495:0.046840597 1521:0.030005354 1538:0.023420298 1600:0.023420298 1611:0.02000357 1620:0.02177052 1639:0.016630875 1667:0.091959558 1688:0.02177052 1722:0.018262237 1723:0.02000357 1729:0.02177052 1760:0.041848511 1766:0.031386383 1769:0.03326175 1770:0.020739079 1773:0.041199598 1775:0.023420298 1777:0.02177052 1788:0.032959681 1812:0.03101483 1814:0.023420298 1829:0.023420298 1855:0.06202966 1856:0.020739079 1863:0.023420298 1866:0.018262237 1903:0.016630875 1916:0.03101483 1949:0.03101483 1987:0.02177052 2008:0.015507415 2080:0.015507415 2082:0.016630875 2094:0.020739079 2131:0.016630875 2141:0.020739079 2183:0.023420298 2210:0.023420298 2212:0.03326175 2218:0.060010709 2222:0.02177052 2264:0.03326175 2266:0.030005354 2312:0.03326175 2328:0.02177052 2368:0.041478157 2374:0.023420298 2383:0.02177052 2384:0.023420298 2393:0.015507415 2394:0.020739079 2409:0.041478157 2411:0.02177052 2414:0.016630875 2450:0.023420298 2453:0.016719921 2471:0.050159764 2481:0.023420298 2521:0.023420298 2531:0.023420298 2549:0.020739079 2557:0.02177052 2559:0.02177052 2590:0.016630875 2594:0.03326175 2653:0.015507415 2682:0.02177052 2707:0.020739079 2775:0.023420298 2863:0.023420298 2877:0.023420298 2882:0.020924255 2884:0.031386383 2899:0.015507415 2902:0.015507415 2910:0.02177052 2928:0.02177052 2933:0.023420298 2937:0.041478157 3010:0.02177052 3082:0.0091311187 3106:0.015507415 3127:0.016630875 3139:0.016630875 3148:0.016630875 3172:0.04354104 3193:0.020739079 3278:0.069896191 3283:0.02177052 3292:0.020739079 3315:0.020739079 3333:0.023420298 3399:0.020739079 3444:0.04565559 3451:0.080014281 3460:0.036524475 3513:0.083697021 3516:0.023420298 3583:0.036524475 3586:0.015507415 3606:0.020739079 3636:0.016630875 3646:0.018262237 3673:0.02177052 3693:0.023420298 3698:0.020739079 3706:0.046840597 3722:0.016630875 3732:0.023420298 3752:0.016630875 3771:0.020739079 3779:0.023420298 3790:0.018262237 3796:0.050159764 3837:0.020739079 3935:0.020739079 3940:0.016630875 3952:0.023420298 3968:0.02177052 4032:0.046522245 4037:0.04354104 4039:0.02177052 4045:0.016630875 4047:0.010001785 4074:0.046522245 4092:0.02177052 4117:0.02177052 4120:0.02177052 4134:0.046840597 4149:0.03101483 4160:0.027393356 4182:0.02177052 4191:0.015507415 4194:0.1150834 4196:0.073234893 4203:0.020739079 4208:0.03101483 4210:0.016630875 4223:0.015507415 4224:0.016630875 4231:0.020739079 4239:0.016630875 4277:0.016479841 4284:0.016630875 4287:0.023420298 4318:0.016630875 4336:0.0083599603 4373:0.02177052 4378:0.023420298 4386:0.0082399203 4392:0.016630875 4400:0.056682047 4402:0.03326175 4437:0.098879032 4439:0.015507415 4488:0.02177052 4524:0.03326175 4557:0.023420298 4563:0.0083599603 4565:0.016719921 4571:0.016630875 4595:0.03101483 4602:0.02177052 4647:0.023420298 4651:0.030005354 4674:0.02177052 4681:0.023420298 4689:0.038927712 4704:0.020739079 4739:0.0091311187 4749:0.03101483 4756:0.0082399203 4772:0.020739079 4782:0.04354104 4802:0.02177052 4816:0.02177052 4820:0.023420298 4889:0.010462128 4923:0.023420298 4935:0.020739079 4938:0.016719921 4971:0.016630875 4981:0.02177052 5006:0.02177052 5050:0.015507415 5072:0.03326175 5075:0.015507415 5131:0.0083599603 5145:0.016630875 5152:0.046522245 5157:0.023420298 5169:0.015507415 5179:0.020739079 5192:0.016630875 5195:0.02177052 5230:0.023420298 5298:0.020739079 5314:0.023420298 5320:0.03326175 5349:0.045190819 5371:0.066879682 5404:0.020739079 5441:0.065919362 5451:0.023420298 5465:0.050159764 5468:0.044159379 5471:0.033439841 5473:0.015507415 5498:0.020739079 5503:0.04354104 5511:0.03326175 5516:0.031386383 5553:0.016630875 5568:0.023420298 5600:0.015507415 5605:0.020739079 5620:0.023420298 5624:0.018262237 5628:0.041848511 5630:0.04565559 5674:0.020739079 5685:0.020739079 5696:0.049439516 5698:0.020739079 5704:0.036246493 5709:0.02177052 5710:0.02177052 5717:0.041478157 5727:0.046840597 5732:0.0082399203 5733:0.02177052 5767:0.016630875 5783:0.020739079 5801:0.020739079 5807:0.11304574 5809:0.015507415 5813:0.015507415 5840:0.02177052 5842:0.023420298 5867:0.020739079 5870:0.016630875 5893:0.020739079 5908:0.03326175 5920:0.03101483 5933:0.016630875 5956:0.023420298 5966:0.016630875 5979:0.0091311187 5980:0.02177052 5989:0.016630875 6020:0.023420298 6045:0.023420298 6059:0.02177052 6065:0.016719921 6091:0.016630875 6096:0.020739079 6102:0.06202966 6106:0.02177052 6111:0.023420298 6115:0.0083599603 6124:0.03326175 6234:0.018262237 6236:0.036524475 6261:0.041199598 6281:0.02177052 6290:0.023420298 6294:0.023420298 6295:0.032959681 6322:0.02177052 6343:0.016479841 6354:0.020739079 6374:0.016630875 6382:0.02177052 6391:0.016630875 6434:0.023420298 6437:0.020739079 6489:0.023420298 6518:0.04005117 6535:0.0665235 6545:0.0082399203 6560:0.050159764 6569:0.015507415 6573:0.016630875 6608:0.033439841 6639:0.020739079 6660:0.016630875 6668:0.03326175 6679:0.023420298 6742:0.04354104 6750:0.02177052 6831:0.020739079 6853:0.023420298 6856:0.03326175 6873:0.015507415 6881:0.0082399203 6886:0.020924255 6906:0.046840597 6914:0.016630875 6917:0.02177052 6919:0.016630875 6979:0.023420298 6997:0.015507415 7032:0.016630875 7062:0.0665235 7105:0.0082399203 7119:0.057679441 7178:0.010462128 7180:0.031386383 7246:0.020739079 7250:0.0083599603 7260:0.050159764 7281:0.04894726 7330:0.02177052 7333:0.016630875 7345:0.02177052 7443:0.02177052 7445:0.023420298 7463:0.016630875 7485:0.03326175 7524:0.020739079 7540:0.02177052 7544:0.073234893 7559:0.016630875 7560:0.049892619 7577:0.04354104 7605:0.02177052 7616:0.04354104 7638:0.023420298 7642:0.098879032 7673:0.06202966 7680:0.015507415 7686:0.016479841 7784:0.02177052 7794:0.020739079 7816:0.023420298 7847:0.091311179 7858:0.020924255 7862:0.016630875 7874:0.1150834 7882:0.020739079 7885:0.016630875 7889:0.020739079 7905:0.041848511 7911:0.010462128 7977:0.023420298 8014:0.06202966 8021:0.04354104 8066:0.020739079 8081:0.016630875 8082:0.02177052 8085:0.02177052 8098:0.02177052 8115:0.023420298 8132:0.049439516 8141:0.016630875 8144:0.046840597 8158:0.030005354 8160:0.015507415 8163:0.016630875 8166:0.041799802 8236:0.016719921 8250:0.04354104 8262:0.016630875 8268:0.015507415 8281:0.023420298 8299:0.03326175 8310:0.03326175 8358:0.04354104 8359:0.016630875 8371:0.023420298 8415:0.02177052 8420:0.03101483 8465:0.015507415 8476:0.046522245 8479:0.016630875 8484:0.04354104 8491:0.015507415 8515:0.041478157 8522:0.065919362 8526:0.020739079 8535:0.020739079 8537:0.020739079 8553:0.020739079 8566:0.02177052 8573:0.02000357 8621:0.016630875 8626:0.023420298 8629:0.015507415 8630:0.02177052 8676:0.016630875 8697:0.041478157 8722:0.016630875 8740:0.020739079 8756:0.062217239 8833:0.015507415 8836:0.016630875 8884:0.02177052 8905:0.083697021 8911:0.010462128 8921:0.016630875 8942:0.023420298 8981:0.015507415 9016:0.020739079 9032:0.016630875 9040:0.02177052 9044:0.023420298 9066:0.046522245 9108:0.04354104 9113:0.023420298 9142:0.036246493 9158:0.0083599603 9175:0.016630875 9249:0.02177052 9274:0.083800182 9285:0.052310638 9299:0.030005354 9301:0.080014281 9302:0.046522245 9327:0.020739079 9328:0.033439841 9334:0.050159764 9347:0.020739079 9370:0.020739079 9409:0.020739079 9446:0.015507415 9460:0.020739079 9467:0.06202966 9513:0.060010709 9515:0.023420298 9537:0.041478157 9547:0.023420298 9561:0.10001785 9593:0.03101483 9630:0.015507415 9691:0.03326175 9713:0.020739079 9715:0.02177052 9737:0.098879032 9762:0.060010709 9764:0.030005354 9779:0.03101483 9805:0.049892619 9809:0.016630875 9814:0.023420298 9840:0.023420298 9849:0.02177052 9859:0.02177052 9874:0.0091311187 9894:0.023420298 9898:0.015507415 9928:0.020739079 9954:0.04565559 9955:0.11001963 9975:0.02177052 9978:0.023420298 10004:0.020739079 10046:0.02177052 10055:0.016630875 10080:0.016630875 10104:0.020739079 10106:0.057679441 10112:0.02177052 10114:0.03101483 10129:0.010001785 10135:0.02000357 10156:0.023420298 10166:0.023420298 10178:0.03101483 10204:0.016630875 10243:0.02177052 10288:0.058519721 10352:0.020739079 10370:0.02000357 10395:0.015507415 10407:0.016630875 10428:0.02177052 10433:0.016630875 10437:0.060010709 10454:0.016630875 10487:0.03101483 10534:0.04354104 10547:0.020739079 10549:0.020739079 10578:0.030005354 10580:0.02000357 10643:0.023420298 10645:0.023420298 10650:0.02177052 10653:0.018262237 10659:0.018262237 10678:0.023420298 10686:0.016630875 10724:0.041478157 10744:0.018262237 10756:0.015507415 10769:0.020739079 10795:0.020739079 10823:0.020739079 10840:0.016630875 10913:0.087082081 10916:0.02177052 10923:0.04354104 10972:0.023420298 10995:0.10867949 10997:0.058519721 11010:0.046522245 11018:0.015507415 11025:0.020739079 11058:0.023420298 11092:0.020739079 11100:0.03326175 11137:0.016479841 11148:0.074437834 11171:0.070260897 11178:0.02177052 11193:0.016630875 11208:0.020739079 11212:0.023420298 11274:0.046840597 11282:0.025079882 11289:0.016630875 11333:0.02177052 11348:0.049892619 11351:0.015507415 11373:0.016630875 11390:0.016630875 11456:0.032959681 11459:0.016719921 11470:0.062217239 11472:0.073048949 11478:0.0091311187 11485:0.020739079 11578:0.0091311187 11597:0.02177052 11625:0.020739079 11643:0.016630875 11651:0.020739079 11661:0.020739079 11662:0.015507415 11664:0.046840597 11690:0.020739079 11692:0.027393356 11719:0.020739079 11727:0.015507415 11728:0.016630875 11734:0.016630875 11740:0.11870454 11799:0.02000357 11863:0.02177052 11875:0.020739079 11878:0.1004423 11879:0.080014281 11911:0.023420298 11916:0.033439841 11928:0.016630875 12044:0.018262237 12050:0.0091311187 12052:0.018262237 12064:0.015507415 12076:0.015507415 12091:0.016630875 12103:0.016630875 12112:0.023420298 12134:0.016479841 12158:0.02177052 12167:0.023420298 12218:0.023420298 12226:0.041478157 12261:0.03101483 12310:0.020739079 12322:0.015507415 12331:0.020739079 12402:0.015507415 12443:0.0083599603 12455:0.02177052 12464:0.03326175 12526:0.02177052 12537:0.023420298 12551:0.023420298 12552:0.020739079 12584:0.023420298 12586:0.023420298 12596:0.015507415 12620:0.02177052 12625:0.020739079 12664:0.016630875 12675:0.015507415 12688:0.015507415 12691:0.023420298 12707:0.020739079 12717:0.02177052 12741:0.02177052 12745:0.016630875 12753:0.018262237 12754:0.03326175 12759:0.04565559 12853:0.046840597 12873:0.020739079 12896:0.020739079 12906:0.020739079 12943:0.015507415 12955:0.015507415 12962:0.020739079 12996:0.02177052 13031:0.023420298 13066:0.02177052 13082:0.016630875 13089:0.023420298 13095:0.015507415 13097:0.046840597 13105:0.083697021 13114:0.016630875 13121:0.041848511 13127:0.041478157 13180:0.02177052 13181:0.020739079 13229:0.041478157 13258:0.03326175 13266:0.020739079 13287:0.0665235 13320:0.020739079 13355:0.03326175 13382:0.082399197 13395:0.10867949 13396:0.010462128 13423:0.015507415 13444:0.03101483 13463:0.037218917 13476:0.020739079 13490:0.02177052 13504:0.020739079 13551:0.087082081 13574:0.020739079 13576:0.015507415 13586:0.02177052 13615:0.02177052 13644:0.020739079 13647:0.010001785 13662:0.020739079 13690:0.030005354 13692:0.02000357 13732:0.031386383 13756:0.03326175 13779:0.018262237 13782:0.046840597 13785:0.023420298 13804:0.02177052 13807:0.03326175 13835:0.020739079 13839:0.03101483 13898:0.0083599603 13924:0.015507415 13929:0.0091311187 13933:0.016630875 13939:0.02177052 13946:0.046522245 13971:0.02177052 13979:0.049892619 13981:0.066879682 13983:0.023420298 14025:0.041478157 14075:0.03101483 14083:0.073048949 14120:0.050159764 14126:0.0083599603 14165:0.020924255 14171:0.02177052 14174:0.02177052 14193:0.023420298 14210:0.023420298 14217:0.016630875 14226:0.016630875 14232:0.015507415 14307:0.02177052 14313:0.058519721 14318:0.015507415 14321:0.020739079 14326:0.018262237 14333:0.016630875 14380:0.016630875 14396:0.016630875 14401:0.02177052 14405:0.016630875 14424:0.066879682 14426:0.020739079 14466:0.020739079 14509:0.016630875 14558:0.016630875 14578:0.065919362 14592:0.020739079 14728:0.050159764 14778:0.02177052 14786:0.020739079 14790:0.02177052 14856:0.020739079 14916:0.046840597 14982:0.018262237 15008:0.016630875 15027:0.02177052 15091:0.046522245 15107:0.015507415 15116:0.075239643 15144:0.02177052 15190:0.020739079 15199:0.02177052 15265:0.016630875 15266:0.016630875 15305:0.023420298 15353:0.10001785 15359:0.11001963 15373:0.020739079 15422:0.023420298 15449:0.015507415 15466:0.020739079 15484:0.03101483 15520:0.02177052 15524:0.062217239 15526:0.065919362 15529:0.015507415 15580:0.02177052 15585:0.016630875 15590:0.020739079 15603:0.020739079 15605:0.098879032 15610:0.015507415 15617:0.023420298 15644:0.02177052 15648:0.031386383 15677:0.02177052 15694:0.03326175 15706:0.023420298 15741:0.023420298 15764:0.020739079 15767:0.020739079 15818:0.041682534 15824:0.010462128 15831:0.046522245 15854:0.015507415 15878:0.020739079 15880:0.020739079 15902:0.049439516 15918:0.015507415 15949:0.02177052 15976:0.0083599603 15978:0.083697021 15988:0.016630875 15992:0.016479841 16014:0.041478157 16026:0.020924255 16030:0.015507415 16052:0.016630875 16079:0.016630875 16124:0.020739079 16135:0.015507415 16136:0.015507415 16148:0.041478157 16157:0.066879682 16158:0.015507415 16160:0.02177052 16180:0.016630875 16181:0.02177052 16197:0.015507415 16221:0.016630875 16237:0.033439841 16243:0.010001785 16262:0.080014281 16270:0.0082399203 16293:0.016630875 16296:0.0665235 16328:0.052310638 16334:0.073234893 16337:0.0082399203 16346:0.016630875 16354:0.020739079 16365:0.023420298 16383:0.0083599603 
1 21:0.030200804 27:0.020689163 40:0.0099037308 47:0.049518656 69:0.016396724 78:0.02055438 95:0.069326118 129:0.016396724 157:0.015100402 173:0.023682948 197:0.023682948 216:0.020689163 219:0.0584029 223:0.039835732 251:0.030200804 258:0.016396724 266:0.023682948 272:0.07508944 279:0.016396724 300:0.016396724 305:0.02055438 339:0.041378327 346:0.02055438 418:0.028897651 447:0.0099037308 507:0.016396724 536:0.016686544 548:0.015100402 549:0.015100402 558:0.02055438 635:0.016396724 688:0.041108761 700:0.020689163 722:0.032793447 743:0.020689163 749:0.020689163 811:0.015100402 821:0.023682948 825:0.020689163 862:0.033134975 867:0.02055438 889:0.023682948 890:0.099037312 892:0.079229847 905:0.016686544 909:0.02055438 920:0.031497125 1017:0.015100402 1020:0.020689163 1025:0.045301203 1053:0.11044991 1064:0.02055438 1077:0.020689163 1086:0.020689163 1088:0.020689163 1090:0.060401607 1091:0.020689163 1099:0.0099037308 1173:0.02055438 1202:0.045301203 1224:0.015100402 1241:0.0083432719 1243:0.016396724 1247:0.020689163 1249:0.02055438 1262:0.045301203 1264:0.032793447 1272:0.02055438 1279:0.02055438 1313:0.023682948 1315:0.032793447 1332:0.02055438 1339:0.015100402 1349:0.02055438 1368:0.025029816 1372:0.030200804 1394:0.02055438 1450:0.023682948 1473:0.032793447 1495:0.023682948 1500:0.041378327 1521:0.039835732 1538:0.023682948 1602:0.047365896 1604:0.02055438 1611:0.019917866 1620:0.020689163 1639:0.016396724 1665:0.020689163 1667:0.086544238 1711:0.023682948 1723:0.039835732 1736:0.015100402 1756:0.02055438 1760:0.022089984 1769:0.016396724 1773:0.050059631 1777:0.041378327 1788:0.033373088 1812:0.015100402 1814:0.023682948 1855:0.045301203 1866:0.029711192 1903:0.016396724 1916:0.015100402 1955:0.02055438 1987:0.020689163 1990:0.061797924 2012:0.02055438 2066:0.020689163 2080:0.045301203 2082:0.016396724 2086:0.016396724 2131:0.016396724 2141:0.041108761 2143:0.023682948 2212:0.016396724 2218:0.039835732 2231:0.023682948 2255:0.020689163 2264:0.016396724 2266:0.0298768 2312:0.016396724 2326:0.047365896 2368:0.02055438 2393:0.015100402 2453:0.017308848 2456:0.022089984 2471:0.060580969 2484:0.020689163 2491:0.016396724 2545:0.023682948 2571:0.030200804 2593:0.020689163 2594:0.016396724 2597:0.02055438 2655:0.02055438 2658:0.02055438 2682:0.041378327 2716:0.020689163 2733:0.023682948 2762:0.016396724 2882:0.055224955 2884:0.022089984 2899:0.030200804 2902:0.015100402 2910:0.020689163 2915:0.02055438 2937:0.02055438 2938:0.015100402 2942:0.020689163 2968:0.020689163 2981:0.020689163 3010:0.020689163 3021:0.023682948 3056:0.02055438 3082:0.0099037308 3097:0.020689163 3106:0.015100402 3127:0.016396724 3139:0.016396724 3148:0.016396724 3162:0.016396724 3172:0.020689163 3181:0.015100402 3197:0.020689163 3269:0.02055438 3278:0.046273526 3306:0.016396724 3332:0.023682948 3333:0.023682948 3350:0.082217522 3375:0.016396724 3410:0.023682948 3426:0.016396724 3444:0.069326118 3451:0.049794666 3460:0.049518656 3507:0.020689163 3513:0.033134975 3519:0.011044992 3535:0.023682948 3565:0.016396724 3577:0.019807462 3583:0.069326118 3606:0.02055438 3646:0.019807462 3655:0.047365896 3673:0.020689163 3698:0.02055438 3732:0.023682948 3771:0.02055438 3788:0.02055438 3790:0.050265573 3794:0.020689163 3796:0.082670957 3859:0.023682948 3865:0.020689163 3878:0.020689163 3900:0.02055438 3935:0.02055438 3940:0.016396724 3982:0.032793447 4032:0.045301203 4037:0.020689163 4045:0.049190171 4047:0.019917866 4074:0.060401607 4075:0.023682948 4125:0.020689163 4149:0.015100402 4160:0.019807462 4185:0.016396724 4194:0.044179969 4196:0.099404924 4208:0.015100402 4223:0.015100402 4239:0.016396724 4243:0.023682948 4277:0.016686544 4287:0.023682948 4318:0.016396724 4333:0.023682948 4336:0.008654424 4373:0.041378327 4386:0.0083432719 4400:0.016396724 4402:0.016396724 4437:0.10011926 4443:0.020689163 4445:0.016396724 4457:0.023682948 4488:0.020689163 4521:0.02055438 4565:0.025963273 4571:0.032793447 4576:0.023682948 4637:0.023682948 4659:0.016396724 4739:0.029711192 4749:0.045301203 4756:0.0083432719 4757:0.020689163 4768:0.020689163 4771:0.016396724 4772:0.02055438 4782:0.041378327 4793:0.020689163 4863:0.02055438 4889:0.022089984 4915:0.02055438 4929:0.020689163 4938:0.017308848 4948:0.023682948 4981:0.020689163 5034:0.020689163 5046:0.016396724 5050:0.060401607 5059:0.020689163 5072:0.049190171 5075:0.015100402 5076:0.023682948 5101:0.016396724 5128:0.02055438 5130:0.047365896 5145:0.016396724 5152:0.030200804 5157:0.023682948 5169:0.015100402 5192:0.032793447 5214:0.023682948 5230:0.023682948 5231:0.015100402 5298:0.02055438 5314:0.023682948 5334:0.016396724 5336:0.023682948 5371:0.060580969 5386:0.023682948 5424:0.02055438 5441:0.0584029 5451:0.023682948 5465:0.060580969 5468:0.088474654 5471:0.034617696 5473:0.015100402 5511:0.016396724 5512:0.023682948 5516:0.055224955 5542:0.016396724 5589:0.016396724 5605:0.02055438 5606:0.023682948 5628:0.022089984 5630:0.019807462 5636:0.023682948 5645:0.016396724 5695:0.02055438 5696:0.0584029 5698:0.02055438 5704:0.02055438 5706:0.02055438 5717:0.02055438 5732:0.0083432719 5733:0.020689163 5740:0.047365896 5767:0.049190171 5795:0.02055438 5807:0.030200804 5811:0.049190171 5842:0.044237327 5870:0.081983618 5908:0.016396724 5920:0.015100402 5930:0.020689163 5933:0.016396724 5953:0.017308848 5954:0.015100402 5979:0.019807462 5980:0.041378327 5989:0.016396724 6021:0.015100402 6065:0.025963273 6078:0.047365896 6091:0.032793447 6096:0.02055438 6099:0.030200804 6102:0.060401607 6111:0.023682948 6115:0.008654424 6124:0.032793447 6159:0.023682948 6218:0.023682948 6234:0.019807462 6235:0.015100402 6236:0.049518656 6261:0.050059631 6276:0.023682948 6290:0.023682948 6295:0.033373088 6343:0.016686544 6347:0.020689163 6355:0.02055438 6359:0.023682948 6394:0.032793447 6395:0.023682948 6414:0.02055438 6434:0.023682948 6442:0.041108761 6444:0.020689163 6503:0.016396724 6518:0.047365896 6535:0.081983618 6545:0.029032435 6560:0.051926546 6569:0.015100402 6573:0.016396724 6608:0.034617696 6704:0.02055438 6775:0.023682948 6798:0.023682948 6802:0.016396724 6830:0.0099037308 6856:0.016396724 6873:0.015100402 6881:0.0083432719 6886:0.022089984 6919:0.016396724 6956:0.02055438 6971:0.047365896 6979:0.023682948 7003:0.020689163 7010:0.020689163 7043:0.023682948 7062:0.049190171 7105:0.0083432719 7115:0.020689163 7119:0.050059631 7126:0.015100402 7178:0.022089984 7180:0.055224955 7230:0.02055438 7233:0.023682948 7246:0.02055438 7250:0.008654424 7260:0.051926546 7268:0.020689163 7278:0.02055438 7281:0.025963273 7330:0.020689163 7333:0.016396724 7373:0.016396724 7451:0.02055438 7463:0.016396724 7485:0.016396724 7513:0.041108761 7543:0.016396724 7544:0.099404924 7559:0.016396724 7560:0.016396724 7577:0.020689163 7605:0.020689163 7616:0.041378327 7634:0.023682948 7642:0.10011926 7673:0.045301203 7680:0.015100402 7686:0.025029816 7710:0.02055438 7724:0.016396724 7731:0.016396724 7735:0.015100402 7765:0.02055438 7779:0.015100402 7794:0.02055438 7812:0.020689163 7816:0.023682948 7841:0.0099037308 7847:0.049518656 7858:0.033134975 7874:0.044179969 7877:0.017308848 7879:0.020689163 7882:0.041108761 7885:0.037085887 7893:0.02055438 7904:0.02055438 7905:0.077314936 7911:0.022089984 7965:0.020689163 8003:0.041108761 8005:0.016396724 8014:0.060401607 8021:0.020689163 8022:0.016396724 8081:0.05777505 8085:0.020689163 8089:0.02055438 8111:0.02055438 8115:0.023682948 8117:0.02055438 8131:0.023682948 8132:0.0584029 8158:0.079671465 8160:0.015100402 8166:0.051926546 8181:0.020689163 8195:0.020689163 8199:0.019807462 8206:0.02055438 8236:0.025963273 8249:0.02055438 8268:0.015100402 8281:0.023682948 8299:0.016396724 8310:0.049190171 8319:0.030200804 8371:0.023682948 8420:0.030200804 8445:0.032793447 8451:0.02055438 8476:0.015100402 8491:0.045301203 8492:0.015100402 8515:0.02055438 8522:0.0584029 8526:0.02055438 8537:0.02055438 8551:0.023682948 8553:0.02055438 8566:0.020689163 8573:0.0298768 8619:0.020689163 8634:0.023682948 8697:0.02055438 8722:0.032793447 8740:0.02055438 8779:0.016396724 8848:0.020689163 8887:0.023682948 8893:0.023682948 8905:0.077314936 8909:0.02055438 8911:0.022089984 8915:0.02055438 8921:0.016396724 8946:0.023682948 8981:0.015100402 8995:0.023682948 9108:0.020689163 9142:0.030200804 9144:0.023682948 9158:0.008654424 9215:0.015100402 9274:0.060401607 9285:0.022089984 9286:0.02055438 9288:0.045301203 9299:0.079671465 9301:0.049794666 9302:0.060401607 9315:0.020689163 9328:0.034617696 9334:0.060580969 9343:0.016396724 9348:0.016396724 9376:0.041108761 9388:0.020689163 9409:0.041108761 9446:0.015100402 9448:0.022089984 9450:0.045301203 9467:0.060401607 9513:0.049794666 9515:0.023682948 9537:0.02055438 9547:0.023682948 9561:0.099589333 9593:0.015100402 9630:0.015100402 9657:0.016396724 9661:0.047365896 9691:0.032793447 9737:0.10011926 9749:0.023682948 9762:0.039835732 9801:0.041108761 9805:0.049190171 9814:0.023682948 9815:0.023682948 9859:0.020689163 9872:0.016396724 9874:0.049518656 9886:0.020689163 9898:0.015100402 9954:0.019807462 9955:0.10954826 9976:0.02055438 9978:0.023682948 9979:0.023682948 9984:0.023682948 10004:0.02055438 10104:0.02055438 10106:0.050059631 10114:0.015100402 10129:0.019917866 10131:0.020689163 10135:0.0298768 10156:0.023682948 10178:0.015100402 10204:0.016396724 10212:0.082756653 10242:0.041378327 10268:0.015100402 10277:0.06166314 10288:0.051926546 10315:0.016396724 10349:0.020689163 10370:0.069712535 10381:0.082756653 10389:0.030200804 10407:0.016396724 10428:0.020689163 10431:0.030200804 10433:0.032793447 10437:0.049794666 10444:0.015100402 10454:0.016396724 10505:0.023682948 10534:0.020689163 10547:0.02055438 10549:0.02055438 10578:0.039835732 10580:0.019917866 10583:0.016396724 10599:0.02055438 10643:0.023682948 10653:0.019807462 10657:0.02055438 10659:0.0099037308 10672:0.011044992 10676:0.02055438 10724:0.02055438 10744:0.0099037308 10795:0.02055438 10798:0.016396724 10804:0.023682948 10913:0.020689163 10923:0.020689163 10952:0.023682948 10995:0.10385309 10997:0.051926546 11010:0.060401607 11018:0.015100402 11025:0.02055438 11062:0.020689163 11074:0.016396724 11094:0.049190171 11137:0.025029816 11148:0.033373088 11197:0.023682948 11229:0.023682948 11282:0.025963273 11289:0.016396724 11308:0.020689163 11326:0.032793447 11332:0.020689163 11373:0.016396724 11390:0.032793447 11419:0.020689163 11456:0.033373088 11459:0.025963273 11472:0.099037312 11473:0.016396724 11478:0.019807462 11485:0.041108761 11518:0.02055438 11544:0.023682948 11560:0.015100402 11578:0.0099037308 11595:0.023682948 11614:0.015100402 11616:0.020689163 11639:0.020689163 11643:0.032793447 11664:0.023682948 11690:0.02055438 11692:0.019807462 11719:0.02055438 11723:0.023682948 11727:0.015100402 11728:0.016396724 11731:0.016396724 11732:0.023682948 11740:0.079229847 11799:0.0298768 11850:0.023682948 11875:0.02055438 11878:0.099037312 11879:0.049794666 11916:0.034617696 11938:0.082756653 11988:0.02055438 11989:0.015100402 12044:0.029711192 12050:0.049518656 12052:0.029711192 12064:0.015100402 12091:0.016396724 12112:0.023682948 12134:0.025029816 12167:0.023682948 12222:0.020689163 12226:0.041108761 12230:0.016396724 12261:0.015100402 12322:0.015100402 12326:0.041378327 12402:0.015100402 12413:0.023682948 12443:0.008654424 12486:0.023682948 12537:0.023682948 12551:0.047365896 12552:0.02055438 12561:0.016396724 12592:0.015100402 12596:0.015100402 12625:0.02055438 12664:0.016396724 12675:0.015100402 12688:0.030200804 12691:0.023682948 12718:0.047365896 12753:0.029711192 12754:0.032793447 12759:0.069326118 12780:0.020689163 12791:0.020689163 12820:0.02055438 12853:0.023682948 12871:0.023682948 12942:0.016396724 12943:0.015100402 12946:0.041378327 12970:0.016396724 13031:0.023682948 13066:0.020689163 13095:0.015100402 13105:0.033134975 13114:0.016396724 13118:0.023682948 13121:0.077314936 13127:0.041108761 13210:0.016396724 13229:0.056209162 13250:0.020689163 13272:0.06206749 13287:0.049190171 13311:0.016396724 13320:0.02055438 13342:0.02055438 13355:0.016396724 13382:0.07508944 13395:0.10385309 13396:0.022089984 13444:0.015100402 13463:0.0083432719 13501:0.047365896 13504:0.02055438 13551:0.020689163 13574:0.02055438 13576:0.015100402 13579:0.041108761 13615:0.020689163 13641:0.041108761 13658:0.023682948 13690:0.0298768 13692:0.069712535 13777:0.020689163 13779:0.0099037308 13804:0.020689163 13807:0.016396724 13835:0.041378327 13839:0.015100402 13864:0.023682948 13898:0.008654424 13924:0.015100402 13929:0.0099037308 13933:0.016396724 13946:0.060401607 13949:0.02055438 13979:0.03370557 13981:0.090781778 14028:0.016396724 14075:0.015100402 14083:0.099037312 14120:0.051926546 14165:0.022089984 14275:0.016396724 14305:0.023682948 14307:0.041378327 14310:0.023682948 14313:0.051926546 14326:0.019807462 14333:0.016396724 14371:0.02055438 14380:0.032793447 14385:0.015100402 14407:0.023682948 14424:0.060580969 14430:0.017308848 14466:0.02055438 14507:0.030200804 14578:0.0584029 14600:0.032793447 14616:0.016396724 14651:0.045301203 14716:0.047365896 14728:0.060580969 14771:0.041108761 14806:0.041108761 14812:0.020689163 14846:0.016396724 14856:0.041108761 14867:0.023682948 14911:0.015100402 14951:0.023682948 14958:0.032793447 14979:0.022089984 14982:0.019807462 14989:0.02055438 15018:0.023682948 15038:0.020689163 15091:0.030200804 15116:0.069235392 15144:0.020689163 15190:0.02055438 15265:0.016396724 15266:0.016396724 15273:0.02055438 15305:0.023682948 15332:0.016396724 15353:0.099589333 15359:0.10954826 15397:0.041378327 15414:0.02055438 15450:0.041108761 15466:0.02055438 15482:0.016396724 15484:0.015100402 15526:0.0584029 15529:0.015100402 15577:0.020689163 15585:0.016396724 15590:0.02055438 15591:0.020689163 15605:0.10011926 15610:0.030200804 15648:0.022089984 15689:0.020689163 15694:0.032793447 15700:0.02055438 15741:0.023682948 15764:0.02055438 15774:0.016396724 15818:0.04349041 15821:0.020689163 15824:0.045772932 15831:0.045301203 15836:0.015100402 15878:0.02055438 15880:0.067920275 15889:0.02055438 15902:0.0584029 15918:0.015100402 15948:0.041378327 15978:0.077314936 15992:0.0083432719 16007:0.015100402 16026:0.055224955 16030:0.015100402 16031:0.02055438 16052:0.016396724 16072:0.015100402 16076:0.020689163 16079:0.032793447 16081:0.02055438 16111:0.02055438 16120:0.020689163 16125:0.041378327 16136:0.015100402 16148:0.02055438 16150:0.02055438 16157:0.060580969 16158:0.015100402 16180:0.016396724 16197:0.015100402 16237:0.025963273 16262:0.049794666 16270:0.0083432719 16293:0.016396724 16296:0.081983618 16328:0.022089984 16334:0.11044991 16337:0.0083432719 16346:0.016396724 16347:0.023682948 16352:0.023682948 16354:0.02055438 16365:0.023682948 16383:0.008654424 
1 1:0.020330794 21:0.012966834 47:0.052514147 55:0.018591696 74:0.018591696 78:0.018591696 95:0.070018865 154:0.018591696 173:0.020330794 201:0.020330794 217:0.0092317378 219:0.03790614 251:0.012966834 258:0.015314041 272:0.083393507 300:0.030628081 319:0.018591696 367:0.020330794 394:0.037183393 413:0.018591696 418:0.0075812279 434:0.018591696 447:0.017504716 507:0.015314041 536:0.0075812279 549:0.012966834 558:0.074366786 724:0.020330794 749:0.040326919 752:0.020330794 763:0.018591696 765:0.018591696 789:0.015314041 801:0.016046807 811:0.012966834 821:0.020330794 824:0.020330794 825:0.02016346 826:0.015314041 835:0.018591696 862:0.019275442 872:0.015314041 890:0.087523587 892:0.12253301 905:0.022743685 920:0.012966834 984:0.015314041 999:0.037183393 1017:0.012966834 1045:0.018591696 1053:0.10601492 1064:0.018591696 1090:0.038900502 1091:0.02016346 1099:0.035009433 1171:0.038755156 1176:0.02016346 1202:0.10373467 1204:0.02016346 1214:0.020330794 1218:0.012966834 1224:0.025933668 1241:0.0075812279 1249:0.074366786 1262:0.038900502 1281:0.0092317378 1308:0.02016346 1315:0.030628081 1322:0.020330794 1338:0.020330794 1339:0.012966834 1368:0.022743685 1372:0.025933668 1421:0.012966834 1424:0.020330794 1450:0.020330794 1473:0.015314041 1521:0.04615869 1576:0.020330794 1579:0.020330794 1611:0.018463476 1613:0.02016346 1622:0.015314041 1639:0.015314041 1643:0.015314041 1667:0.10430425 1722:0.017504716 1729:0.080653839 1756:0.018591696 1760:0.0096377209 1766:0.0096377209 1773:0.030324912 1775:0.10165396 1777:0.02016346 1783:0.02016346 1788:0.015162456 1797:0.018591696 1812:0.025933668 1855:0.038900502 1866:0.0087523581 1892:0.02016346 1903:0.015314041 1916:0.012966834 2008:0.025933668 2012:0.015314041 2033:0.018591696 2066:0.02016346 2082:0.061256163 2131:0.015314041 2210:0.015314041 2218:0.036926951 2238:0.037183393 2255:0.040326919 2266:0.073853903 2289:0.012966834 2302:0.012966834 2359:0.02016346 2385:0.018591696 2393:0.012966834 2409:0.018591696 2453:0.024070209 2471:0.040117018 2526:0.02016346 2576:0.018591696 2594:0.030628081 2608:0.038922489 2625:0.018591696 2653:0.012966834 2682:0.02016346 2716:0.040326919 2731:0.1008173 2845:0.018591696 2861:0.020330794 2877:0.020330794 2882:0.028913161 2884:0.0096377209 2899:0.012966834 2910:0.040326919 2928:0.02016346 2935:0.020330794 2937:0.055775087 2942:0.02016346 2968:0.02016346 3001:0.020330794 3010:0.040326919 3056:0.018591696 3073:0.020330794 3080:0.018591696 3082:0.0087523581 3094:0.037183393 3097:0.02016346 3106:0.012966834 3127:0.061256163 3139:0.015314041 3148:0.015314041 3172:0.040326919 3201:0.02016346 3216:0.02016346 3278:0.033777516 3293:0.015314041 3306:0.015314041 3315:0.018591696 3371:0.012966834 3375:0.015314041 3386:0.015314041 3444:0.035009433 3451:0.04615869 3513:0.057826322 3519:0.0096377209 3563:0.020330794 3572:0.020330794 3577:0.0087523581 3583:0.070018865 3606:0.074366786 3620:0.02016346 3646:0.017504716 3652:0.055775087 3662:0.012966834 3722:0.015314041 3732:0.020330794 3765:0.020330794 3790:0.0087523581 3792:0.040326919 3794:0.018591696 3796:0.0080234036 3848:0.012966834 3872:0.020330794 3897:0.02016346 3929:0.02016346 4011:0.018591696 4045:0.04594212 4074:0.038900502 4113:0.012966834 4130:0.018591696 4134:0.02016346 4149:0.025933668 4160:0.052514147 4194:0.13492809 4196:0.057826322 4223:0.012966834 4224:0.015314041 4239:0.015314041 4272:0.020330794 4277:0.0075812279 4280:0.018591696 4285:0.020330794 4317:0.02016346 4318:0.015314041 4319:0.018591696 4336:0.0080234036 4373:0.02016346 4386:0.0075812279 4400:0.055975627 4437:0.11371842 4439:0.012966834 4449:0.040326919 4488:0.02016346 4525:0.018591696 4550:0.015314041 4557:0.020330794 4563:0.016046807 4565:0.0080234036 4571:0.04594212 4574:0.012966834 4576:0.020330794 4591:0.02016346 4630:0.015314041 4651:0.0092317378 4656:0.02016346 4739:0.035009433 4749:0.025933668 4756:0.027912023 4757:0.02016346 4781:0.020330794 4782:0.02016346 4786:0.012966834 4793:0.040326919 4889:0.0096377209 4895:0.018591696 4938:0.0080234036 4948:0.020330794 4962:0.018591696 4996:0.020330794 5050:0.012966834 5055:0.015314041 5072:0.04594212 5075:0.012966834 5130:0.020330794 5131:0.016046807 5145:0.015314041 5152:0.077801004 5169:0.012966834 5195:0.02016346 5222:0.020330794 5231:0.012966834 5257:0.012966834 5323:0.02016346 5334:0.015314041 5359:0.020330794 5371:0.048140418 5396:0.015314041 5410:0.012966834 5424:0.018591696 5441:0.060649823 5465:0.0080234036 5471:0.080234036 5473:0.012966834 5493:0.015314041 5511:0.015314041 5516:0.019275442 5566:0.015314041 5586:0.015314041 5600:0.012966834 5617:0.055775087 5624:0.017504716 5628:0.0096377209 5630:0.043761794 5661:0.02016346 5685:0.018591696 5696:0.03790614 5727:0.020330794 5732:0.0075812279 5744:0.018591696 5807:0.025933668 5813:0.012966834 5821:0.015314041 5829:0.02016346 5842:0.018591696 5871:0.020330794 5879:0.02016346 5899:0.040661588 5908:0.030628081 5930:0.018591696 5979:0.026257074 5980:0.02016346 5989:0.015314041 6042:0.02016346 6065:0.0080234036 6091:0.091884241 6096:0.037183393 6102:0.038900502 6111:0.020330794 6112:0.015314041 6124:0.015314041 6143:0.040661588 6162:0.015314041 6205:0.015314041 6234:0.017504716 6261:0.030324912 6295:0.015162456 6322:0.02016346 6343:0.022743685 6347:0.02016346 6403:0.040326919 6415:0.055775087 6434:0.020330794 6436:0.018591696 6446:0.020330794 6479:0.02016346 6514:0.02016346 6545:0.068573609 6560:0.040117018 6569:0.051867336 6608:0.080234036 6612:0.012966834 6704:0.037183393 6740:0.030628081 6751:0.037183393 6795:0.02016346 6856:0.030628081 6873:0.051867336 6881:0.0075812279 6886:0.019275442 6906:0.020330794 6919:0.015314041 6979:0.020330794 7010:0.040326919 7013:0.015314041 7062:0.04594212 7072:0.020330794 7105:0.0075812279 7119:0.060649823 7136:0.015314041 7178:0.028913161 7180:0.019275442 7216:0.02016346 7230:0.018591696 7233:0.020330794 7239:0.02016346 7250:0.0080234036 7259:0.018591696 7260:0.056163825 7281:0.045060448 7305:0.015314041 7333:0.030628081 7432:0.040661588 7463:0.015314041 7470:0.015314041 7513:0.018591696 7532:0.020330794 7540:0.080653839 7544:0.057826322 7559:0.015314041 7560:0.015314041 7589:0.020330794 7616:0.02016346 7620:0.0080234036 7642:0.11371842 7673:0.038900502 7680:0.012966834 7686:0.022743685 7710:0.037183393 7731:0.015314041 7794:0.018591696 7847:0.052514147 7852:0.020330794 7858:0.019275442 7863:0.018591696 7874:0.13492809 7879:0.040326919 7881:0.02016346 7885:0.015314041 7892:0.015314041 7904:0.018591696 7905:0.086739488 7911:0.0096377209 7944:0.020330794 7952:0.015314041 7961:0.018591696 7993:0.020330794 8008:0.015314041 8014:0.12966834 8081:0.015314041 8103:0.018591696 8132:0.03790614 8143:0.012966834 8158:0.036926951 8160:0.012966834 8163:0.015314041 8166:0.032093614 8185:0.015314041 8199:0.0087523581 8236:0.0080234036 8248:0.02016346 8268:0.012966834 8281:0.060992382 8296:0.020330794 8299:0.015314041 8310:0.030628081 8316:0.020330794 8371:0.060992382 8420:0.025933668 8428:0.02016346 8430:0.012966834 8458:0.02016346 8476:0.012966834 8491:0.038900502 8492:0.025933668 8522:0.060649823 8526:0.037183393 8573:0.018463476 8627:0.055775087 8629:0.012966834 8634:0.020330794 8658:0.012966834 8722:0.015314041 8740:0.037183393 8828:0.015314041 8905:0.038550884 8909:0.018591696 8911:0.028913161 8915:0.018591696 8921:0.015314041 8927:0.02016346 9020:0.020330794 9046:0.02016346 9067:0.020330794 9139:0.030628081 9142:0.038900502 9158:0.0080234036 9215:0.012966834 9247:0.018591696 9274:0.038900502 9285:0.019275442 9293:0.015314041 9299:0.036926951 9301:0.10154912 9302:0.012966834 9315:0.02016346 9328:0.080234036 9334:0.0080234036 9343:0.030628081 9366:0.020330794 9376:0.018591696 9418:0.018591696 9424:0.012966834 9432:0.02016346 9446:0.012966834 9454:0.018591696 9467:0.12966834 9513:0.036926951 9515:0.020330794 9537:0.037183393 9547:0.060992382 9561:0.12924433 9582:0.020330794 9593:0.025933668 9630:0.012966834 9659:0.018591696 9676:0.018591696 9691:0.015314041 9737:0.11371842 9749:0.040326919 9752:0.020330794 9762:0.036926951 9764:0.0092317378 9778:0.02016346 9805:0.12251233 9809:0.018591696 9840:0.020330794 9859:0.02016346 9872:0.015314041 9874:0.0087523581 9894:0.081323177 9898:0.012966834 9905:0.020330794 9912:0.02016346 9954:0.043761794 9955:0.073853903 9958:0.02016346 9978:0.020330794 9979:0.020330794 10009:0.015314041 10056:0.020330794 10077:0.015314041 10106:0.060649823 10114:0.012966834 10129:0.040326919 10131:0.02016346 10135:0.04615869 10162:0.015314041 10169:0.018591696 10178:0.025933668 10204:0.015314041 10206:0.020330794 10226:0.015314041 10288:0.064187229 10333:0.015314041 10360:0.015314041 10370:0.018463476 10403:0.018591696 10407:0.015314041 10431:0.025933668 10437:0.036926951 10499:0.015314041 10509:0.018591696 10549:0.018591696 10550:0.02016346 10561:0.020330794 10578:0.04615869 10580:0.018463476 10583:0.015314041 10596:0.015314041 10643:0.015314041 10645:0.020330794 10672:0.0096377209 10714:0.012966834 10724:0.018591696 10744:0.035009433 10756:0.012966834 10769:0.020330794 10798:0.015314041 10810:0.020330794 10812:0.037183393 10832:0.02016346 10840:0.030628081 10856:0.030628081 10863:0.02016346 10869:0.015314041 10873:0.015314041 10913:0.02016346 10995:0.10430425 10997:0.056163825 11010:0.012966834 11019:0.012966834 11074:0.015314041 11137:0.0075812279 11148:0.015162456 11224:0.020330794 11250:0.02016346 11274:0.020330794 11282:0.0080234036 11289:0.015314041 11373:0.015314041 11390:0.091884241 11432:0.018591696 11448:0.020330794 11456:0.015162456 11459:0.024070209 11469:0.012966834 11470:0.018591696 11472:0.096275941 11478:0.026257074 11516:0.020330794 11544:0.020330794 11578:0.0087523581 11596:0.020330794 11597:0.0354775 11602:0.020330794 11614:0.012966834 11628:0.020330794 11662:0.012966834 11690:0.018591696 11692:0.052514147 11698:0.018591696 11719:0.037183393 11727:0.012966834 11728:0.015314041 11734:0.015314041 11740:0.12253301 11755:0.040326919 11775:0.012966834 11787:0.038755156 11799:0.04615869 11878:0.087523587 11879:0.04615869 11911:0.020330794 11916:0.080234036 11920:0.018591696 11964:0.015314041 11997:0.015314041 12044:0.026257074 12050:0.0087523581 12052:0.0087523581 12064:0.012966834 12091:0.015314041 12098:0.012966834 12134:0.0075812279 12163:0.015314041 12195:0.012966834 12207:0.02016346 12226:0.018591696 12261:0.012966834 12322:0.012966834 12402:0.012966834 12407:0.0080234036 12443:0.0080234036 12473:0.02016346 12537:0.020330794 12552:0.018591696 12580:0.020330794 12592:0.012966834 12596:0.012966834 12625:0.018591696 12666:0.02016346 12675:0.012966834 12688:0.038900502 12702:0.018591696 12753:0.0087523581 12754:0.015314041 12759:0.035009433 12771:0.040661588 12780:0.02016346 12810:0.02016346 12821:0.015314041 12850:0.012966834 12871:0.020330794 12938:0.02016346 12958:0.02016346 12970:0.015314041 12972:0.040661588 12988:0.020330794 13003:0.02016346 13031:0.060992382 13060:0.015314041 13082:0.015314041 13095:0.012966834 13105:0.057826322 13114:0.015314041 13121:0.086739488 13127:0.037183393 13191:0.02016346 13229:0.037183393 13270:0.020330794 13271:0.055775087 13287:0.04594212 13320:0.018591696 13347:0.0080234036 13355:0.015314041 13358:0.018591696 13382:0.083393507 13384:0.015314041 13395:0.10430425 13396:0.028913161 13423:0.018591696 13460:0.012966834 13463:0.0075812279 13551:0.02016346 13562:0.02016346 13574:0.018591696 13576:0.012966834 13605:0.018591696 13615:0.02016346 13621:0.018591696 13622:0.018591696 13641:0.031558529 13654:0.020330794 13658:0.020330794 13678:0.018591696 13690:0.073853903 13692:0.018463476 13693:0.018591696 13721:0.015314041 13732:0.0096377209 13752:0.055775087 13768:0.018591696 13779:0.0087523581 13796:0.018591696 13804:0.018591696 13807:0.030628081 13835:0.038755156 13839:0.025933668 13843:0.02016346 13860:0.037183393 13866:0.020330794 13876:0.018591696 13885:0.040326919 13898:0.0080234036 13905:0.02016346 13911:0.02016346 13919:0.02016346 13924:0.012966834 13929:0.0087523581 13933:0.015314041 13946:0.038900502 13971:0.02016346 13978:0.015314041 13979:0.015314041 13980:0.02016346 13981:0.048140418 14002:0.020330794 14075:0.012966834 14083:0.096275941 14084:0.020330794 14120:0.040117018 14126:0.016046807 14151:0.015314041 14165:0.019275442 14221:0.020330794 14305:0.020330794 14307:0.02016346 14313:0.056163825 14318:0.012966834 14323:0.020330794 14331:0.015314041 14333:0.015314041 14345:0.02016346 14364:0.018591696 14371:0.018591696 14380:0.030628081 14396:0.030628081 14424:0.048140418 14439:0.020330794 14446:0.02016346 14489:0.02016346 14548:0.015314041 14578:0.060649823 14609:0.020330794 14638:0.018591696 14728:0.0080234036 14770:0.012966834 14789:0.030628081 14799:0.0080234036 14802:0.02016346 14840:0.020330794 14853:0.015314041 14858:0.015314041 14937:0.012966834 14987:0.018591696 15018:0.020330794 15031:0.015314041 15091:0.025933668 15116:0.080234036 15144:0.040326919 15146:0.018591696 15186:0.02016346 15190:0.018591696 15217:0.015314041 15228:0.02016346 15231:0.02016346 15257:0.018591696 15265:0.030628081 15266:0.015314041 15293:0.020330794 15353:0.12924433 15359:0.073853903 15391:0.015314041 15466:0.037183393 15484:0.012966834 15515:0.018591696 15526:0.060649823 15529:0.012966834 15557:0.02016346 15585:0.04594212 15594:0.02016346 15605:0.11371842 15610:0.051867336 15637:0.020330794 15648:0.0096377209 15677:0.060490377 15694:0.015314041 15706:0.10165396 15717:0.015314041 15724:0.020330794 15726:0.030628081 15758:0.040661588 15764:0.018591696 15782:0.020330794 15812:0.040326919 15824:0.028913161 15878:0.037183393 15880:0.018591696 15889:0.018591696 15902:0.03790614 15918:0.012966834 15921:0.060490377 15948:0.02016346 15954:0.018591696 15978:0.038550884 15992:0.0075812279 16007:0.012966834 16026:0.028913161 16030:0.012966834 16072:0.012966834 16079:0.030628081 16136:0.012966834 16148:0.037183393 16150:0.018591696 16157:0.048140418 16174:0.015314041 16180:0.015314041 16197:0.012966834 16237:0.032093614 16262:0.10154912 16270:0.0075812279 16310:0.02016346 16328:0.019275442 16330:0.012966834 16334:0.10601492 16337:0.0075812279 16346:0.04594212 16354:0.018591696 16365:0.020330794 16383:0.016046807 
0.3716346667066648 1:0.020330794 21:0.012966834 47:0.052514147 55:0.018591696 74:0.018591696 78:0.018591696 95:0.070018865 154:0.018591696 173:0.020330794 201:0.020330794 217:0.0092317378 219:0.03790614 251:0.012966834 258:0.015314041 272:0.083393507 300:0.030628081 319:0.018591696 367:0.020330794 394:0.037183393 413:0.018591696 418:0.0075812279 434:0.018591696 447:0.017504716 507:0.015314041 536:0.0075812279 549:0.012966834 558:0.074366786 724:0.020330794 749:0.040326919 752:0.020330794 763:0.018591696 765:0.018591696 789:0.015314041 801:0.016046807 811:0.012966834 821:0.020330794 824:0.020330794 825:0.02016346 826:0.015314041 835:0.018591696 862:0.019275442 872:0.015314041 890:0.087523587 892:0.12253301 905:0.022743685 920:0.012966834 984:0.015314041 999:0.037183393 1017:0.012966834 1045:0.018591696 1053:0.10601492 1064:0.018591696 1090:0.038900502 1091:0.02016346 1099:0.035009433 1171:0.038755156 1176:0.02016346 1202:0.10373467 1204:0.02016346 1214:0.020330794 1218:0.012966834 1224:0.025933668 1241:0.0075812279 1249:0.074366786 1262:0.038900502 1281:0.0092317378 1308:0.02016346 1315:0.030628081 1322:0.020330794 1338:0.020330794 1339:0.012966834 1368:0.022743685 1372:0.025933668 1421:0.012966834 1424:0.020330794 1450:0.020330794 1473:0.015314041 1521:0.04615869 1576:0.020330794 1579:0.020330794 1611:0.018463476 1613:0.02016346 1622:0.015314041 1639:0.015314041 1643:0.015314041 1667:0.10430425 1722:0.017504716 1729:0.080653839 1756:0.018591696 1760:0.0096377209 1766:0.0096377209 1773:0.030324912 1775:0.10165396 1777:0.02016346 1783:0.02016346 1788:0.015162456 1797:0.018591696 1812:0.025933668 1855:0.038900502 1866:0.0087523581 1892:0.02016346 1903:0.015314041 1916:0.012966834 2008:0.025933668 2012:0.015314041 2033:0.018591696 2066:0.02016346 2082:0.061256163 2131:0.015314041 2210:0.015314041 2218:0.036926951 2238:0.037183393 2255:0.040326919 2266:0.073853903 2289:0.012966834 2302:0.012966834 2359:0.02016346 2385:0.018591696 2393:0.012966834 2409:0.018591696 2453:0.024070209 2471:0.040117018 2526:0.02016346 2576:0.018591696 2594:0.030628081 2608:0.038922489 2625:0.018591696 2653:0.012966834 2682:0.02016346 2716:0.040326919 2731:0.1008173 2845:0.018591696 2861:0.020330794 2877:0.020330794 2882:0.028913161 2884:0.0096377209 2899:0.012966834 2910:0.040326919 2928:0.02016346 2935:0.020330794 2937:0.055775087 2942:0.02016346 2968:0.02016346 3001:0.020330794 3010:0.040326919 3056:0.018591696 3073:0.020330794 3080:0.018591696 3082:0.0087523581 3094:0.037183393 3097:0.02016346 3106:0.012966834 3127:0.061256163 3139:0.015314041 3148:0.015314041 3172:0.040326919 3201:0.02016346 3216:0.02016346 3278:0.033777516 3293:0.015314041 3306:0.015314041 3315:0.018591696 3371:0.012966834 3375:0.015314041 3386:0.015314041 3444:0.035009433 3451:0.04615869 3513:0.057826322 3519:0.0096377209 3563:0.020330794 3572:0.020330794 3577:0.0087523581 3583:0.070018865 3606:0.074366786 3620:0.02016346 3646:0.017504716 3652:0.055775087 3662:0.012966834 3722:0.015314041 3732:0.020330794 3765:0.020330794 3790:0.0087523581 3792:0.040326919 3794:0.018591696 3796:0.0080234036 3848:0.012966834 3872:0.020330794 3897:0.02016346 3929:0.02016346 4011:0.018591696 4045:0.04594212 4074:0.038900502 4113:0.012966834 4130:0.018591696 4134:0.02016346 4149:0.025933668 4160:0.052514147 4194:0.13492809 4196:0.057826322 4223:0.012966834 4224:0.015314041 4239:0.015314041 4272:0.020330794 4277:0.0075812279 4280:0.018591696 4285:0.020330794 4317:0.02016346 4318:0.015314041 4319:0.018591696 4336:0.0080234036 4373:0.02016346 4386:0.0075812279 4400:0.055975627 4437:0.11371842 4439:0.012966834 4449:0.040326919 4488:0.02016346 4525:0.018591696 4550:0.015314041 4557:0.020330794 4563:0.016046807 4565:0.0080234036 4571:0.04594212 4574:0.012966834 4576:0.020330794 4591:0.02016346 4630:0.015314041 4651:0.0092317378 4656:0.02016346 4739:0.035009433 4749:0.025933668 4756:0.027912023 4757:0.02016346 4781:0.020330794 4782:0.02016346 4786:0.012966834 4793:0.040326919 4889:0.0096377209 4895:0.018591696 4938:0.0080234036 4948:0.020330794 4962:0.018591696 4996:0.020330794 5050:0.012966834 5055:0.015314041 5072:0.04594212 5075:0.012966834 5130:0.020330794 5131:0.016046807 5145:0.015314041 5152:0.077801004 5169:0.012966834 5195:0.02016346 5222:0.020330794 5231:0.012966834 5257:0.012966834 5323:0.02016346 5334:0.015314041 5359:0.020330794 5371:0.048140418 5396:0.015314041 5410:0.012966834 5424:0.018591696 5441:0.060649823 5465:0.0080234036 5471:0.080234036 5473:0.012966834 5493:0.015314041 5511:0.015314041 5516:0.019275442 5566:0.015314041 5586:0.015314041 5600:0.012966834 5617:0.055775087 5624:0.017504716 5628:0.0096377209 5630:0.043761794 5661:0.02016346 5685:0.018591696 5696:0.03790614 5727:0.020330794 5732:0.0075812279 5744:0.018591696 5807:0.025933668 5813:0.012966834 5821:0.015314041 5829:0.02016346 5842:0.018591696 5871:0.020330794 5879:0.02016346 5899:0.040661588 5908:0.030628081 5930:0.018591696 5979:0.026257074 5980:0.02016346 5989:0.015314041 6042:0.02016346 6065:0.0080234036 6091:0.091884241 6096:0.037183393 6102:0.038900502 6111:0.020330794 6112:0.015314041 6124:0.015314041 6143:0.040661588 6162:0.015314041 6205:0.015314041 6234:0.017504716 6261:0.030324912 6295:0.015162456 6322:0.02016346 6343:0.022743685 6347:0.02016346 6403:0.040326919 6415:0.055775087 6434:0.020330794 6436:0.018591696 6446:0.020330794 6479:0.02016346 6514:0.02016346 6545:0.068573609 6560:0.040117018 6569:0.051867336 6608:0.080234036 6612:0.012966834 6704:0.037183393 6740:0.030628081 6751:0.037183393 6795:0.02016346 6856:0.030628081 6873:0.051867336 6881:0.0075812279 6886:0.019275442 6906:0.020330794 6919:0.015314041 6979:0.020330794 7010:0.040326919 7013:0.015314041 7062:0.04594212 7072:0.020330794 7105:0.0075812279 7119:0.060649823 7136:0.015314041 7178:0.028913161 7180:0.019275442 7216:0.02016346 7230:0.018591696 7233:0.020330794 7239:0.02016346 7250:0.0080234036 7259:0.018591696 7260:0.056163825 7281:0.045060448 7305:0.015314041 7333:0.030628081 7432:0.040661588 7463:0.015314041 7470:0.015314041 7513:0.018591696 7532:0.020330794 7540:0.080653839 7544:0.057826322 7559:0.015314041 7560:0.015314041 7589:0.020330794 7616:0.02016346 7620:0.0080234036 7642:0.11371842 7673:0.038900502 7680:0.012966834 7686:0.022743685 7710:0.037183393 7731:0.015314041 7794:0.018591696 7847:0.052514147 7852:0.020330794 7858:0.019275442 7863:0.018591696 7874:0.13492809 7879:0.040326919 7881:0.02016346 7885:0.015314041 7892:0.015314041 7904:0.018591696 7905:0.086739488 7911:0.0096377209 7944:0.020330794 7952:0.015314041 7961:0.018591696 7993:0.020330794 8008:0.015314041 8014:0.12966834 8081:0.015314041 8103:0.018591696 8132:0.03790614 8143:0.012966834 8158:0.036926951 8160:0.012966834 8163:0.015314041 8166:0.032093614 8185:0.015314041 8199:0.0087523581 8236:0.0080234036 8248:0.02016346 8268:0.012966834 8281:0.060992382 8296:0.020330794 8299:0.015314041 8310:0.030628081 8316:0.020330794 8371:0.060992382 8420:0.025933668 8428:0.02016346 8430:0.012966834 8458:0.02016346 8476:0.012966834 8491:0.038900502 8492:0.025933668 8522:0.060649823 8526:0.037183393 8573:0.018463476 8627:0.055775087 8629:0.012966834 8634:0.020330794 8658:0.012966834 8722:0.015314041 8740:0.037183393 8828:0.015314041 8905:0.038550884 8909:0.018591696 8911:0.028913161 8915:0.018591696 8921:0.015314041 8927:0.02016346 9020:0.020330794 9046:0.02016346 9067:0.020330794 9139:0.030628081 9142:0.038900502 9158:0.0080234036 9215:0.012966834 9247:0.018591696 9274:0.038900502 9285:0.019275442 9293:0.015314041 9299:0.036926951 9301:0.10154912 9302:0.012966834 9315:0.02016346 9328:0.080234036 9334:0.0080234036 9343:0.030628081 9366:0.020330794 9376:0.018591696 9418:0.018591696 9424:0.012966834 9432:0.02016346 9446:0.012966834 9454:0.018591696 9467:0.12966834 9513:0.036926951 9515:0.020330794 9537:0.037183393 9547:0.060992382 9561:0.12924433 9582:0.020330794 9593:0.025933668 9630:0.012966834 9659:0.018591696 9676:0.018591696 9691:0.015314041 9737:0.11371842 9749:0.040326919 9752:0.020330794 9762:0.036926951 9764:0.0092317378 9778:0.02016346 9805:0.12251233 9809:0.018591696 9840:0.020330794 9859:0.02016346 9872:0.015314041 9874:0.0087523581 9894:0.081323177 9898:0.012966834 9905:0.020330794 9912:0.02016346 9954:0.043761794 9955:0.073853903 9958:0.02016346 9978:0.020330794 9979:0.020330794 10009:0.015314041 10056:0.020330794 10077:0.015314041 10106:0.060649823 10114:0.012966834 10129:0.040326919 10131:0.02016346 10135:0.04615869 10162:0.015314041 10169:0.018591696 10178:0.025933668 10204:0.015314041 10206:0.020330794 10226:0.015314041 10288:0.064187229 10333:0.015314041 10360:0.015314041 10370:0.018463476 10403:0.018591696 10407:0.015314041 10431:0.025933668 10437:0.036926951 10499:0.015314041 10509:0.018591696 10549:0.018591696 10550:0.02016346 10561:0.020330794 10578:0.04615869 10580:0.018463476 10583:0.015314041 10596:0.015314041 10643:0.015314041 10645:0.020330794 10672:0.0096377209 10714:0.012966834 10724:0.018591696 10744:0.035009433 10756:0.012966834 10769:0.020330794 10798:0.015314041 10810:0.020330794 10812:0.037183393 10832:0.02016346 10840:0.030628081 10856:0.030628081 10863:0.02016346 10869:0.015314041 10873:0.015314041 10913:0.02016346 10995:0.10430425 10997:0.056163825 11010:0.012966834 11019:0.012966834 11074:0.015314041 11137:0.0075812279 11148:0.015162456 11224:0.020330794 11250:0.02016346 11274:0.020330794 11282:0.0080234036 11289:0.015314041 11373:0.015314041 11390:0.091884241 11432:0.018591696 11448:0.020330794 11456:0.015162456 11459:0.024070209 11469:0.012966834 11470:0.018591696 11472:0.096275941 11478:0.026257074 11516:0.020330794 11544:0.020330794 11578:0.0087523581 11596:0.020330794 11597:0.0354775 11602:0.020330794 11614:0.012966834 11628:0.020330794 11662:0.012966834 11690:0.018591696 11692:0.052514147 11698:0.018591696 11719:0.037183393 11727:0.012966834 11728:0.015314041 11734:0.015314041 11740:0.12253301 11755:0.040326919 11775:0.012966834 11787:0.038755156 11799:0.04615869 11878:0.087523587 11879:0.04615869 11911:0.020330794 11916:0.080234036 11920:0.018591696 11964:0.015314041 11997:0.015314041 12044:0.026257074 12050:0.0087523581 12052:0.0087523581 12064:0.012966834 12091:0.015314041 12098:0.012966834 12134:0.0075812279 12163:0.015314041 12195:0.012966834 12207:0.02016346 12226:0.018591696 12261:0.012966834 12322:0.012966834 12402:0.012966834 12407:0.0080234036 12443:0.0080234036 12473:0.02016346 12537:0.020330794 12552:0.018591696 12580:0.020330794 12592:0.012966834 12596:0.012966834 12625:0.018591696 12666:0.02016346 12675:0.012966834 12688:0.038900502 12702:0.018591696 12753:0.0087523581 12754:0.015314041 12759:0.035009433 12771:0.040661588 12780:0.02016346 12810:0.02016346 12821:0.015314041 12850:0.012966834 12871:0.020330794 12938:0.02016346 12958:0.02016346 12970:0.015314041 12972:0.040661588 12988:0.020330794 13003:0.02016346 13031:0.060992382 13060:0.015314041 13082:0.015314041 13095:0.012966834 13105:0.057826322 13114:0.015314041 13121:0.086739488 13127:0.037183393 13191:0.02016346 13229:0.037183393 13270:0.020330794 13271:0.055775087 13287:0.04594212 13320:0.018591696 13347:0.0080234036 13355:0.015314041 13358:0.018591696 13382:0.083393507 13384:0.015314041 13395:0.10430425 13396:0.028913161 13423:0.018591696 13460:0.012966834 13463:0.0075812279 13551:0.02016346 13562:0.02016346 13574:0.018591696 13576:0.012966834 13605:0.018591696 13615:0.02016346 13621:0.018591696 13622:0.018591696 13641:0.031558529 13654:0.020330794 13658:0.020330794 13678:0.018591696 13690:0.073853903 13692:0.018463476 13693:0.018591696 13721:0.015314041 13732:0.0096377209 13752:0.055775087 13768:0.018591696 13779:0.0087523581 13796:0.018591696 13804:0.018591696 13807:0.030628081 13835:0.038755156 13839:0.025933668 13843:0.02016346 13860:0.037183393 13866:0.020330794 13876:0.018591696 13885:0.040326919 13898:0.0080234036 13905:0.02016346 13911:0.02016346 13919:0.02016346 13924:0.012966834 13929:0.0087523581 13933:0.015314041 13946:0.038900502 13971:0.02016346 13978:0.015314041 13979:0.015314041 13980:0.02016346 13981:0.048140418 14002:0.020330794 14075:0.012966834 14083:0.096275941 14084:0.020330794 14120:0.040117018 14126:0.016046807 14151:0.015314041 14165:0.019275442 14221:0.020330794 14305:0.020330794 14307:0.02016346 14313:0.056163825 14318:0.012966834 14323:0.020330794 14331:0.015314041 14333:0.015314041 14345:0.02016346 14364:0.018591696 14371:0.018591696 14380:0.030628081 14396:0.030628081 14424:0.048140418 14439:0.020330794 14446:0.02016346 14489:0.02016346 14548:0.015314041 14578:0.060649823 14609:0.020330794 14638:0.018591696 14728:0.0080234036 14770:0.012966834 14789:0.030628081 14799:0.0080234036 14802:0.02016346 14840:0.020330794 14853:0.015314041 14858:0.015314041 14937:0.012966834 14987:0.018591696 15018:0.020330794 15031:0.015314041 15091:0.025933668 15116:0.080234036 15144:0.040326919 15146:0.018591696 15186:0.02016346 15190:0.018591696 15217:0.015314041 15228:0.02016346 15231:0.02016346 15257:0.018591696 15265:0.030628081 15266:0.015314041 15293:0.020330794 15353:0.12924433 15359:0.073853903 15391:0.015314041 15466:0.037183393 15484:0.012966834 15515:0.018591696 15526:0.060649823 15529:0.012966834 15557:0.02016346 15585:0.04594212 15594:0.02016346 15605:0.11371842 15610:0.051867336 15637:0.020330794 15648:0.0096377209 15677:0.060490377 15694:0.015314041 15706:0.10165396 15717:0.015314041 15724:0.020330794 15726:0.030628081 15758:0.040661588 15764:0.018591696 15782:0.020330794 15812:0.040326919 15824:0.028913161 15878:0.037183393 15880:0.018591696 15889:0.018591696 15902:0.03790614 15918:0.012966834 15921:0.060490377 15948:0.02016346 15954:0.018591696 15978:0.038550884 15992:0.0075812279 16007:0.012966834 16026:0.028913161 16030:0.012966834 16072:0.012966834 16079:0.030628081 16136:0.012966834 16148:0.037183393 16150:0.018591696 16157:0.048140418 16174:0.015314041 16180:0.015314041 16197:0.012966834 16237:0.032093614 16262:0.10154912 16270:0.0075812279 16310:0.02016346 16328:0.019275442 16330:0.012966834 16334:0.10601492 16337:0.0075812279 16346:0.04594212 16354:0.018591696 16365:0.020330794 16383:0.016046807 
0.7345619209006591 21:0.045724027 34:0.04432901 45:0.022081595 47:0.083137833 55:0.022247417 78:0.022247417 95:0.041568916 131:0.022081595 144:0.022081595 176:0.022247417 200:0.022247417 201:0.022532286 209:0.022247417 211:0.017853646 217:0.0096760532 219:0.04635701 231:0.022532286 234:0.022081595 251:0.015241342 258:0.017853646 272:0.084987849 290:0.022081595 299:0.022247417 300:0.035707291 311:0.017853646 345:0.017853646 352:0.017853646 373:0.015241342 418:0.037699752 434:0.022247417 447:0.024941349 475:0.015241342 507:0.035707291 536:0.0077261683 545:0.022532286 549:0.015241342 557:0.022532286 558:0.044494834 571:0.022081595 681:0.022081595 712:0.017853646 763:0.022247417 765:0.022247417 774:0.022247417 801:0.008273242 811:0.015241342 821:0.022532286 825:0.04416319 862:0.03013717 872:0.017853646 889:0.022532286 890:0.07482405 892:0.1496481 905:0.037984625 920:0.015241342 961:0.017853646 972:0.022247417 1014:0.022247417 1016:0.022081595 1017:0.015241342 1025:0.015241342 1033:0.04416319 1052:0.022081595 1053:0.10045724 1063:0.022247417 1064:0.022247417 1073:0.022532286 1076:0.022532286 1077:0.022081595 1088:0.04416319 1090:0.060965367 1091:0.022081595 1099:0.0083137834 1100:0.017853646 1202:0.076206714 1204:0.022081595 1224:0.045724027 1241:0.0077261683 1243:0.017853646 1249:0.022247417 1256:0.022247417 1262:0.030482683 1281:0.0096760532 1308:0.022081595 1309:0.022247417 1313:0.022081595 1315:0.035707291 1332:0.022247417 1339:0.015241342 1349:0.022247417 1360:0.022247417 1368:0.023178505 1372:0.045724027 1375:0.017853646 1382:0.022081595 1473:0.017853646 1475:0.022247417 1484:0.022081595 1500:0.022081595 1521:0.067732371 1538:0.022532286 1611:0.019352106 1612:0.022247417 1613:0.022081595 1620:0.022081595 1622:0.053560939 1639:0.017853646 1667:0.099278904 1729:0.022081595 1760:0.040182896 1762:0.022081595 1769:0.035707291 1773:0.030904673 1775:0.022532286 1777:0.022081595 1788:0.015452337 1808:0.022247417 1812:0.015241342 1855:0.030482683 1856:0.022247417 1866:0.024941349 1871:0.017853646 1900:0.022247417 1903:0.017853646 1908:0.022532286 1916:0.015241342 1999:0.022247417 2066:0.04416319 2082:0.035707291 2086:0.017853646 2131:0.017853646 2210:0.022532286 2218:0.067732371 2255:0.022081595 2266:0.048380271 2289:0.015241342 2302:0.015241342 2393:0.015241342 2409:0.022247417 2448:0.022247417 2453:0.016546484 2464:0.022532286 2471:0.041366212 2571:0.015241342 2593:0.04416319 2594:0.053560939 2604:0.022247417 2661:0.022532286 2684:0.022081595 2731:0.022081595 2751:0.022532286 2762:0.017853646 2822:0.022081595 2882:0.020091448 2884:0.020091448 2899:0.030482683 2902:0.015241342 2910:0.022081595 2935:0.022532286 2937:0.022247417 2942:0.022081595 2959:0.022247417 2968:0.022081595 2970:0.022247417 2996:0.033094987 2998:0.022532286 3001:0.015241342 3010:0.022081595 3013:0.022532286 3021:0.017853646 3056:0.022247417 3073:0.022532286 3080:0.022247417 3082:0.0083137834 3103:0.022532286 3106:0.015241342 3127:0.017853646 3139:0.035707291 3148:0.017853646 3160:0.022532286 3172:0.022081595 3207:0.022532286 3213:0.022081595 3278:0.037205756 3300:0.022081595 3306:0.017853646 3355:0.017853646 3371:0.030482683 3375:0.035707291 3434:0.022532286 3444:0.033255134 3451:0.048380271 3460:0.0083137834 3513:0.080365792 3519:0.010045724 3535:0.022532286 3577:0.016627567 3583:0.041568916 3588:0.022247417 3606:0.044494834 3621:0.017853646 3625:0.017853646 3646:0.0083137834 3652:0.022247417 3655:0.022532286 3698:0.022247417 3711:0.017853646 3732:0.022532286 3765:0.022532286 3768:0.022247417 3771:0.022247417 3790:0.024941349 3796:0.016546484 3823:0.017853646 3859:0.022247417 3868:0.022532286 3909:0.022532286 3929:0.04416319 3933:0.017853646 3935:0.022247417 3955:0.015241342 3984:0.039935242 4039:0.022081595 4045:0.017853646 4047:0.019352106 4069:0.022081595 4074:0.030482683 4098:0.017853646 4101:0.022081595 4149:0.015241342 4160:0.024941349 4171:0.022247417 4178:0.022081595 4194:0.13059442 4196:0.07032007 4208:0.015241342 4223:0.030482683 4231:0.022247417 4239:0.035707291 4277:0.0077261683 4311:0.017853646 4318:0.017853646 4336:0.016546484 4339:0.017853646 4341:0.017853646 4373:0.022081595 4383:0.022247417 4386:0.015452337 4400:0.035707291 4437:0.10816636 4444:0.022532286 4524:0.017853646 4537:0.022532286 4554:0.022247417 4563:0.008273242 4565:0.008273242 4571:0.035707291 4574:0.015241342 4576:0.022532286 4591:0.022081595 4630:0.017853646 4637:0.022532286 4739:0.024941349 4748:0.022532286 4749:0.015241342 4756:0.0077261683 4757:0.022081595 4772:0.022247417 4780:0.022532286 4781:0.022532286 4793:0.022081595 4863:0.022247417 4889:0.020091448 4929:0.022532286 4938:0.008273242 4948:0.022532286 4956:0.017853646 4983:0.022247417 5038:0.022532286 5050:0.030482683 5072:0.035707291 5075:0.033094987 5128:0.022247417 5130:0.022532286 5131:0.008273242 5145:0.017853646 5152:0.060965367 5169:0.015241342 5206:0.022247417 5209:0.022247417 5222:0.022532286 5228:0.017853646 5231:0.015241342 5255:0.022532286 5281:0.022247417 5298:0.022247417 5323:0.04416319 5334:0.035707291 5371:0.033092968 5441:0.061809346 5465:0.016546484 5469:0.04416319 5471:0.0579127 5473:0.015241342 5508:0.022081595 5511:0.017853646 5516:0.020091448 5520:0.022081595 5553:0.017853646 5570:0.022247417 5588:0.035707291 5605:0.022247417 5617:0.022247417 5624:0.022081595 5628:0.040182896 5630:0.041568916 5635:0.022532286 5670:0.017853646 5696:0.04635701 5717:0.044494834 5727:0.022532286 5732:0.0077261683 5774:0.022247417 5777:0.022247417 5795:0.022247417 5807:0.030482683 5811:0.017853646 5821:0.017853646 5842:0.022247417 5846:0.022081595 5908:0.017853646 5920:0.015241342 5935:0.022247417 5952:0.022081595 5953:0.008273242 5979:0.024941349 5980:0.022081595 5989:0.017853646 5998:0.022532286 6033:0.017853646 6065:0.008273242 6078:0.022532286 6091:0.053560939 6096:0.022247417 6099:0.015241342 6102:0.030482683 6124:0.017853646 6141:0.017853646 6154:0.04416319 6234:0.0083137834 6236:0.0083137834 6261:0.030904673 6276:0.022532286 6295:0.015452337 6343:0.015452337 6347:0.022081595 6348:0.022532286 6354:0.022247417 6355:0.022247417 6363:0.022081595 6434:0.022532286 6450:0.022532286 6462:0.022081595 6479:0.04416319 6480:0.035707291 6545:0.07532303 6560:0.049639452 6569:0.030482683 6573:0.017853646 6608:0.0579127 6617:0.017853646 6643:0.022081595 6685:0.04416319 6704:0.022247417 6720:0.022247417 6750:0.022081595 6775:0.022532286 6830:0.0083137834 6843:0.04416319 6846:0.022247417 6853:0.022532286 6856:0.053560939 6873:0.030482683 6881:0.0077261683 6886:0.010045724 6906:0.022532286 6912:0.022247417 6914:0.017853646 6919:0.017853646 6948:0.022081595 6973:0.017853646 7010:0.022081595 7046:0.045064572 7062:0.017853646 7078:0.022532286 7105:0.0077261683 7119:0.061809346 7178:0.03013717 7180:0.020091448 7233:0.022532286 7246:0.022247417 7250:0.008273242 7260:0.0579127 7277:0.022081595 7281:0.049639452 7305:0.017853646 7322:0.022081595 7333:0.017853646 7367:0.015241342 7418:0.022247417 7426:0.022532286 7450:0.022532286 7463:0.017853646 7487:0.015241342 7513:0.044494834 7540:0.022081595 7543:0.017853646 7544:0.07032007 7559:0.017853646 7560:0.017853646 7577:0.022081595 7589:0.022532286 7590:0.015241342 7620:0.016546484 7642:0.10816636 7673:0.030482683 7680:0.015241342 7686:0.023178505 7710:0.022247417 7731:0.017853646 7791:0.04416319 7816:0.022532286 7817:0.022081595 7841:0.0083137834 7842:0.022247417 7847:0.083137833 7858:0.03013717 7874:0.13059442 7877:0.008273242 7885:0.062016837 7901:0.022532286 7905:0.050228618 7911:0.020091448 7944:0.022532286 8003:0.022247417 8005:0.017853646 8006:0.022247417 8014:0.10668939 8021:0.022081595 8075:0.022081595 8081:0.062016837 8110:0.045064572 8132:0.04635701 8144:0.022532286 8152:0.017853646 8153:0.022247417 8158:0.038704213 8160:0.015241342 8163:0.017853646 8166:0.041366212 8181:0.022081595 8195:0.022532286 8199:0.016627567 8236:0.008273242 8249:0.022247417 8250:0.022081595 8268:0.015241342 8278:0.022081595 8281:0.06759686 8299:0.017853646 8310:0.017853646 8319:0.015241342 8322:0.017853646 8352:0.022081595 8371:0.06759686 8420:0.045724027 8470:0.022532286 8476:0.015241342 8491:0.030482683 8492:0.015241342 8522:0.061809346 8526:0.022247417 8566:0.022081595 8573:0.019352106 8574:0.022532286 8627:0.017853646 8634:0.022532286 8659:0.017853646 8674:0.022532286 8697:0.044494834 8722:0.035707291 8740:0.022247417 8797:0.022532286 8829:0.022081595 8838:0.015241342 8862:0.015241342 8905:0.040182896 8909:0.022247417 8911:0.03013717 8914:0.017853646 8921:0.017853646 8924:0.022081595 8981:0.015241342 9082:0.022247417 9093:0.022081595 9098:0.022247417 9111:0.022247417 9113:0.045064572 9139:0.017853646 9142:0.030482683 9153:0.022532286 9158:0.008273242 9215:0.015241342 9274:0.030482683 9285:0.020091448 9288:0.015241342 9299:0.038704213 9301:0.10643659 9302:0.030482683 9315:0.04416319 9328:0.0579127 9334:0.016546484 9343:0.017853646 9364:0.022247417 9376:0.044494834 9398:0.022247417 9408:0.022081595 9424:0.015241342 9446:0.030482683 9467:0.10668939 9483:0.017853646 9486:0.044494834 9513:0.048380271 9537:0.022247417 9544:0.022532286 9547:0.06759686 9561:0.10643659 9593:0.015241342 9630:0.015241342 9691:0.035707291 9720:0.022532286 9737:0.10816636 9740:0.022247417 9762:0.067732371 9801:0.022247417 9805:0.08926823 9859:0.022081595 9872:0.035707291 9874:0.0083137834 9884:0.035707291 9886:0.022081595 9898:0.015241342 9954:0.041568916 9955:0.077408426 9958:0.04416319 9979:0.022532286 10003:0.022532286 10004:0.022247417 10020:0.022081595 10021:0.017853646 10104:0.022247417 10106:0.061809346 10114:0.015241342 10129:0.063515298 10131:0.022081595 10135:0.02902816 10137:0.022247417 10178:0.045724027 10179:0.022532286 10181:0.017853646 10184:0.022247417 10204:0.017853646 10207:0.022081595 10268:0.015241342 10269:0.017853646 10288:0.066185936 10370:0.02902816 10380:0.022247417 10389:0.015241342 10397:0.022247417 10407:0.017853646 10431:0.030482683 10437:0.048380271 10509:0.022247417 10540:0.015241342 10547:0.022247417 10549:0.022247417 10578:0.067732371 10580:0.019352106 10583:0.017853646 10672:0.010045724 10724:0.022247417 10726:0.022247417 10744:0.0083137834 10756:0.015241342 10760:0.022081595 10795:0.022247417 10798:0.017853646 10822:0.022081595 10840:0.017853646 10856:0.017853646 10863:0.022081595 10913:0.04416319 10970:0.022532286 10995:0.1158254 10997:0.07445918 11010:0.030482683 11018:0.015241342 11062:0.022081595 11074:0.017853646 11094:0.017853646 11100:0.017853646 11136:0.022532286 11137:0.0077261683 11148:0.015452337 11165:0.015241342 11197:0.022532286 11256:0.017853646 11274:0.022532286 11282:0.008273242 11289:0.017853646 11319:0.022081595 11333:0.022247417 11335:0.017853646 11357:0.022532286 11373:0.017853646 11390:0.053560939 11456:0.015452337 11459:0.033092968 11463:0.022532286 11470:0.022247417 11472:0.07482405 11478:0.024941349 11492:0.022081595 11516:0.022532286 11535:0.022532286 11544:0.045064572 11560:0.015241342 11578:0.038796466 11586:0.022247417 11602:0.022532286 11614:0.030482683 11616:0.04416319 11665:0.015241342 11690:0.022247417 11692:0.024941349 11719:0.022247417 11727:0.030482683 11728:0.017853646 11733:0.022532286 11740:0.1496481 11741:0.015241342 11775:0.015241342 11787:0.04416319 11799:0.02902816 11833:0.022532286 11859:0.022247417 11875:0.022247417 11878:0.07482405 11879:0.048380271 11916:0.0579127 11936:0.022081595 11988:0.022081595 11997:0.017853646 12017:0.022247417 12021:0.022081595 12030:0.015241342 12044:0.024941349 12050:0.0083137834 12051:0.022532286 12052:0.024941349 12064:0.015241342 12091:0.017853646 12098:0.015241342 12100:0.022532286 12109:0.04416319 12134:0.0077261683 12135:0.022247417 12207:0.022081595 12226:0.044494834 12261:0.015241342 12322:0.015241342 12326:0.022081595 12402:0.015241342 12407:0.016546484 12413:0.017853646 12443:0.008273242 12449:0.017853646 12537:0.022532286 12549:0.022247417 12552:0.022247417 12592:0.015241342 12596:0.015241342 12625:0.022247417 12664:0.017853646 12675:0.015241342 12688:0.030482683 12691:0.022532286 12707:0.022247417 12753:0.024941349 12754:0.017853646 12759:0.033255134 12782:0.022247417 12853:0.022532286 12880:0.022532286 12965:0.017853646 12970:0.017853646 12996:0.022081595 13031:0.06759686 13060:0.017853646 13095:0.015241342 13097:0.022532286 13105:0.080365792 13114:0.035707291 13121:0.050228618 13127:0.066742256 13136:0.022532286 13138:0.015241342 13229:0.066742256 13287:0.017853646 13307:0.022247417 13314:0.022247417 13320:0.022247417 13342:0.022247417 13347:0.016546484 13355:0.035707291 13382:0.084987849 13395:0.1158254 13396:0.03013717 13444:0.015241342 13460:0.015241342 13461:0.022247417 13463:0.0077261683 13506:0.037488759 13551:0.04416319 13576:0.015241342 13615:0.022081595 13641:0.022247417 13655:0.022532286 13662:0.022247417 13690:0.048380271 13692:0.02902816 13693:0.022247417 13752:0.022247417 13779:0.0083137834 13807:0.017853646 13839:0.015241342 13881:0.022532286 13885:0.022081595 13898:0.008273242 13905:0.04416319 13911:0.022081595 13919:0.045064572 13924:0.015241342 13929:0.0083137834 13933:0.035707291 13946:0.060965367 13979:0.026126888 13981:0.033092968 14024:0.022247417 14034:0.017853646 14043:0.017853646 14075:0.015241342 14083:0.07482405 14120:0.049639452 14126:0.008273242 14151:0.015241342 14165:0.010045724 14217:0.035707291 14244:0.015241342 14307:0.022081595 14313:0.07445918 14323:0.022532286 14326:0.022532286 14331:0.053560939 14333:0.017853646 14380:0.035707291 14396:0.017853646 14424:0.033092968 14430:0.008273242 14451:0.022532286 14466:0.022247417 14499:0.022247417 14531:0.022247417 14574:0.06759686 14578:0.061809346 14579:0.022081595 14644:0.015241342 14651:0.015241342 14728:0.016546484 14770:0.030482683 14799:0.016546484 14806:0.022247417 14810:0.015241342 14841:0.022532286 14853:0.017853646 14858:0.017853646 14871:0.022247417 14915:0.017853646 14942:0.022532286 14958:0.017853646 15091:0.030482683 15116:0.082732424 15144:0.022081595 15170:0.022247417 15190:0.022247417 15221:0.017853646 15232:0.022247417 15265:0.017853646 15266:0.017853646 15302:0.022081595 15319:0.017853646 15340:0.015241342 15353:0.10643659 15359:0.077408426 15397:0.022081595 15429:0.022247417 15450:0.022247417 15466:0.022247417 15480:0.022532286 15484:0.015241342 15526:0.061809346 15529:0.030482683 15579:0.022532286 15585:0.017853646 15605:0.10816636 15610:0.045724027 15646:0.017853646 15648:0.020091448 15677:0.022081595 15689:0.022081595 15694:0.017853646 15706:0.022532286 15724:0.060305916 15734:0.022247417 15764:0.022247417 15782:0.022532286 15795:0.022081595 15796:0.022532286 15801:0.022532286 15812:0.04416319 15821:0.022081595 15824:0.052669454 15825:0.022532286 15853:0.022247417 15878:0.022247417 15880:0.022247417 15889:0.022247417 15902:0.04635701 15905:0.022247417 15918:0.030482683 15924:0.022532286 15978:0.040182896 15988:0.022247417 15992:0.0077261683 16007:0.015241342 16026:0.020091448 16030:0.015241342 16072:0.015241342 16079:0.035707291 16088:0.045064572 16089:0.022532286 16100:0.022532286 16136:0.015241342 16148:0.022247417 16150:0.022247417 16157:0.033092968 16158:0.015241342 16180:0.035707291 16197:0.015241342 16233:0.017853646 16237:0.049639452 16262:0.10643659 16270:0.0077261683 16275:0.022081595 16293:0.017853646 16304:0.017853646 16310:0.022247417 16328:0.020091448 16334:0.10045724 16337:0.0077261683 16346:0.017853646 16354:0.022247417 16381:0.017853646 16383:0.008273242 
-0.1141110113929591 21:0.016784739 40:0.0095047755 47:0.038019102 69:0.018493971 95:0.057028659 173:0.024682697 217:0.017480636 219:0.058451686 223:0.017480636 234:0.02241567 251:0.016784739 258:0.018493971 272:0.083502412 290:0.02241567 300:0.018493971 305:0.021392561 389:0.02241567 396:0.024682697 418:0.016700482 425:0.024682697 433:0.024682697 447:0.0095047755 507:0.018493971 536:0.016700482 537:0.021392561 548:0.016784739 549:0.016784739 558:0.021392561 578:0.021392561 594:0.024682697 635:0.018493971 713:0.018493971 725:0.021392561 763:0.042785123 801:0.0084817009 811:0.016784739 821:0.024682697 825:0.02241567 828:0.02241567 853:0.024682697 862:0.067247011 872:0.018493971 885:0.024682697 890:0.057028659 892:0.066533431 899:0.021392561 905:0.008350241 920:0.016784739 926:0.018493971 1016:0.02241567 1017:0.016784739 1025:0.016784739 1041:0.024682697 1045:0.021392561 1053:0.12328619 1064:0.021392561 1090:0.067138955 1091:0.02241567 1094:0.016784739 1098:0.018493971 1099:0.0095047755 1111:0.018493971 1151:0.044831339 1202:0.033569477 1224:0.050354213 1241:0.008350241 1243:0.018493971 1262:0.050354213 1276:0.02241567 1281:0.017480636 1339:0.016784739 1347:0.02241567 1368:0.016700482 1372:0.033569477 1421:0.016784739 1495:0.024682697 1521:0.008740318 1602:0.024682697 1611:0.017480636 1620:0.02241567 1622:0.036987942 1639:0.018493971 1667:0.084817015 1691:0.024682697 1723:0.017480636 1725:0.021392561 1760:0.044831339 1766:0.011207835 1769:0.018493971 1773:0.041751206 1787:0.02241567 1788:0.033400964 1799:0.02241567 1814:0.024682697 1855:0.050354213 1866:0.0095047755 1900:0.021392561 1903:0.018493971 1908:0.024682697 1916:0.016784739 1931:0.024682697 1957:0.021392561 2012:0.039886534 2066:0.02241567 2080:0.033569477 2082:0.036987942 2086:0.018493971 2131:0.018493971 2208:0.02241567 2218:0.069922544 2249:0.024682697 2255:0.02241567 2266:0.008740318 2272:0.021392561 2289:0.033569477 2302:0.016784739 2317:0.021392561 2326:0.024682697 2334:0.018493971 2383:0.042785123 2393:0.016784739 2410:0.024682697 2437:0.02241567 2453:0.0084817009 2456:0.011207835 2471:0.050890207 2498:0.024682697 2534:0.024682697 2571:0.033569477 2590:0.018493971 2593:0.02241567 2594:0.036987942 2597:0.021392561 2655:0.021392561 2661:0.024682697 2664:0.021392561 2682:0.02241567 2696:0.018493971 2771:0.021392561 2786:0.021392561 2789:0.02241567 2877:0.024682697 2882:0.02241567 2884:0.044831339 2899:0.033569477 2902:0.016784739 2938:0.016784739 2959:0.021392561 2981:0.02241567 2993:0.018493971 3010:0.02241567 3021:0.049365394 3043:0.024682697 3065:0.021392561 3082:0.0095047755 3106:0.050354213 3127:0.018493971 3136:0.02241567 3139:0.061670639 3148:0.018493971 3162:0.018493971 3181:0.016784739 3207:0.018493971 3216:0.02241567 3269:0.021392561 3278:0.044714924 3286:0.016784739 3333:0.024682697 3371:0.016784739 3426:0.018493971 3444:0.11405732 3451:0.069922544 3460:0.028514329 3507:0.02241567 3513:0.033623505 3519:0.011207835 3535:0.024682697 3577:0.019009551 3583:0.057028659 3586:0.016784739 3606:0.021392561 3614:0.021392561 3636:0.018493971 3646:0.0095047755 3663:0.021392561 3672:0.02241567 3698:0.021392561 3732:0.024682697 3754:0.021392561 3770:0.024682697 3788:0.021392561 3790:0.040402114 3794:0.021392561 3796:0.053616341 3859:0.024682697 3872:0.024682697 3880:0.021392561 3887:0.024682697 3900:0.021392561 3941:0.018493971 3955:0.016784739 3956:0.02241567 3967:0.024682697 3984:0.02241567 3995:0.021392561 4000:0.021392561 4011:0.021392561 4032:0.033569477 4037:0.02241567 4041:0.024682697 4047:0.017480636 4069:0.02241567 4074:0.016784739 4098:0.018493971 4105:0.02241567 4120:0.02241567 4136:0.018493971 4141:0.024682697 4160:0.028514329 4194:0.044831339 4196:0.056039177 4208:0.016784739 4210:0.018493971 4223:0.033569477 4239:0.018493971 4277:0.016700482 4318:0.018493971 4319:0.021392561 4333:0.024682697 4336:0.016963402 4373:0.02241567 4386:0.016700482 4400:0.018493971 4437:0.09185265 4445:0.036987942 4457:0.024682697 4488:0.02241567 4503:0.021392561 4524:0.018493971 4537:0.024682697 4550:0.018493971 4557:0.024682697 4563:0.0084817009 4565:0.025445104 4571:0.018493971 4574:0.016784739 4576:0.024682697 4637:0.024682697 4651:0.008740318 4659:0.018493971 4666:0.021392561 4701:0.024682697 4739:0.019009551 4756:0.008350241 4782:0.044831339 4783:0.021392561 4793:0.02241567 4802:0.02241567 4858:0.021392561 4872:0.021392561 4889:0.044831339 4930:0.02241567 4938:0.016963402 4948:0.024682697 4963:0.02241567 4977:0.02241567 4981:0.02241567 5046:0.018493971 5050:0.033569477 5055:0.018493971 5059:0.02241567 5072:0.036987942 5075:0.016784739 5076:0.024682697 5103:0.024682697 5128:0.021392561 5131:0.0084817009 5145:0.018493971 5152:0.033569477 5169:0.016784739 5192:0.018493971 5210:0.021392561 5214:0.024682697 5230:0.049365394 5238:0.02241567 5247:0.016784739 5261:0.02241567 5314:0.049365394 5356:0.024682697 5371:0.033926804 5376:0.024682697 5379:0.035278708 5441:0.066801928 5465:0.042408507 5468:0.042785123 5469:0.044831339 5471:0.016963402 5473:0.016784739 5493:0.018493971 5511:0.018493971 5516:0.056039177 5553:0.018493971 5566:0.018493971 5570:0.021392561 5589:0.036987942 5595:0.021392561 5628:0.044831339 5630:0.028514329 5645:0.018493971 5696:0.058451686 5732:0.008350241 5767:0.036987942 5795:0.021392561 5807:0.10412689 5809:0.033569477 5811:0.018493971 5821:0.018493971 5825:0.021392561 5833:0.018493971 5842:0.024682697 5846:0.044831339 5862:0.021392561 5870:0.036987942 5886:0.018493971 5900:0.018493971 5920:0.016784739 5928:0.016784739 5930:0.02241567 5933:0.018493971 5935:0.02241567 5953:0.016963402 5979:0.038019102 5989:0.018493971 6065:0.025445104 6087:0.02241567 6091:0.018493971 6096:0.021392561 6099:0.033569477 6102:0.016784739 6112:0.018493971 6115:0.016963402 6138:0.02241567 6218:0.024682697 6230:0.024682697 6234:0.0095047755 6236:0.028514329 6255:0.024682697 6261:0.041751206 6264:0.02241567 6290:0.024682697 6295:0.033400964 6329:0.024682697 6335:0.042785123 6343:0.008350241 6355:0.042785123 6358:0.021392561 6375:0.024682697 6434:0.024682697 6442:0.021392561 6503:0.018493971 6518:0.018493971 6535:0.073975883 6545:0.030765912 6560:0.067853607 6569:0.033569477 6573:0.018493971 6608:0.016963402 6639:0.021392561 6668:0.018493971 6675:0.024682697 6705:0.021392561 6802:0.018493971 6805:0.042785123 6830:0.0095047755 6837:0.021392561 6843:0.044831339 6856:0.018493971 6873:0.033569477 6881:0.008350241 6886:0.033623505 6904:0.021392561 6919:0.018493971 6952:0.02241567 6997:0.016784739 7010:0.02241567 7013:0.018493971 7018:0.016784739 7030:0.018493971 7043:0.024682697 7058:0.024682697 7105:0.008350241 7119:0.058451686 7125:0.02241567 7127:0.021392561 7167:0.016784739 7178:0.011207835 7180:0.056039177 7190:0.021392561 7208:0.021392561 7216:0.021392561 7219:0.02241567 7222:0.024682697 7230:0.042785123 7236:0.021392561 7246:0.02241567 7250:0.0084817009 7259:0.021392561 7260:0.059371907 7281:0.042408507 7287:0.0084817009 7305:0.018493971 7330:0.02241567 7333:0.018493971 7373:0.018493971 7399:0.021392561 7426:0.024682697 7432:0.024682697 7439:0.02241567 7443:0.02241567 7451:0.021392561 7463:0.018493971 7506:0.021392561 7544:0.056039177 7559:0.018493971 7560:0.018493971 7574:0.021392561 7616:0.044831339 7620:0.0084817009 7634:0.024682697 7638:0.018493971 7642:0.09185265 7648:0.02241567 7673:0.050354213 7680:0.016784739 7686:0.016700482 7735:0.016784739 7752:0.021392561 7765:0.021392561 7779:0.016784739 7790:0.02241567 7794:0.021392561 7798:0.021392561 7817:0.044831339 7841:0.0095047755 7847:0.038019102 7858:0.067247011 7860:0.024682697 7874:0.044831339 7877:0.016963402 7882:0.021392561 7885:0.018493971 7905:0.056039177 7911:0.02241567 7919:0.040909644 7989:0.0084817009 8005:0.018493971 8014:0.033569477 8021:0.02241567 8071:0.02241567 8075:0.02241567 8081:0.040909644 8085:0.02241567 8106:0.02241567 8111:0.021392561 8115:0.024682697 8116:0.021392561 8117:0.021392561 8132:0.058451686 8136:0.024682697 8144:0.024682697 8158:0.034961272 8160:0.016784739 8166:0.042408507 8199:0.019009551 8206:0.021392561 8224:0.021392561 8236:0.016963402 8268:0.016784739 8272:0.024682697 8279:0.067247011 8299:0.018493971 8319:0.033569477 8420:0.033569477 8451:0.042785123 8465:0.016784739 8476:0.033569477 8491:0.033569477 8492:0.016784739 8497:0.02241567 8522:0.066801928 8557:0.021392561 8573:0.026220955 8658:0.016784739 8676:0.024682697 8692:0.024682697 8718:0.02241567 8722:0.036987942 8740:0.021392561 8786:0.024682697 8838:0.016784739 8861:0.024682697 8893:0.024682697 8899:0.021392561 8905:0.089662679 8911:0.02241567 8915:0.042785123 8921:0.018493971 8981:0.016784739 9066:0.041467432 9070:0.02241567 9129:0.02241567 9142:0.016784739 9158:0.0084817009 9165:0.02241567 9176:0.021392561 9181:0.018493971 9226:0.02241567 9234:0.021392561 9259:0.018493971 9274:0.016784739 9275:0.021392561 9285:0.033623505 9288:0.016784739 9299:0.034961272 9301:0.026220955 9302:0.050354213 9328:0.016963402 9334:0.042408507 9348:0.018493971 9424:0.016784739 9446:0.033569477 9448:0.011207835 9450:0.016784739 9467:0.033569477 9475:0.024682697 9513:0.043701593 9537:0.021392561 9538:0.044831339 9547:0.024682697 9561:0.13110477 9576:0.044831339 9590:0.024682697 9630:0.016784739 9655:0.024682697 9661:0.024682697 9691:0.018493971 9737:0.09185265 9762:0.069922544 9764:0.008740318 9796:0.02241567 9805:0.036987942 9814:0.049365394 9859:0.02241567 9874:0.076038204 9884:0.036987942 9898:0.016784739 9915:0.021392561 9954:0.028514329 9955:0.12236446 9963:0.021392561 9973:0.024682697 9976:0.021392561 10034:0.024682697 10077:0.018493971 10094:0.018493971 10106:0.058451686 10114:0.033569477 10129:0.017480636 10144:0.044831339 10178:0.050354213 10204:0.018493971 10212:0.044831339 10268:0.016784739 10288:0.059371907 10289:0.02241567 10313:0.018493971 10349:0.02241567 10370:0.026220955 10381:0.044831339 10389:0.016784739 10395:0.016784739 10405:0.024682697 10407:0.018493971 10428:0.02241567 10433:0.018493971 10437:0.043701593 10444:0.016784739 10446:0.02241567 10503:0.018493971 10509:0.021392561 10512:0.02241567 10534:0.02241567 10540:0.033569477 10547:0.021392561 10549:0.021392561 10567:0.049365394 10578:0.008740318 10580:0.017480636 10643:0.024682697 10645:0.024682697 10653:0.019009551 10659:0.019009551 10665:0.02241567 10672:0.011207835 10714:0.016784739 10724:0.021392561 10744:0.0095047755 10901:0.018493971 10913:0.02241567 10923:0.02241567 10995:0.12722552 10997:0.067853607 11010:0.050354213 11018:0.016784739 11026:0.02241567 11092:0.021392561 11094:0.018493971 11100:0.018493971 11106:0.018493971 11118:0.018493971 11137:0.016700482 11148:0.033400964 11169:0.024682697 11219:0.024682697 11229:0.024682697 11250:0.02241567 11263:0.02241567 11282:0.025445104 11289:0.018493971 11308:0.02241567 11357:0.024682697 11373:0.018493971 11390:0.018493971 11395:0.018493971 11410:0.018493971 11456:0.033400964 11459:0.016963402 11472:0.10455254 11473:0.036987942 11478:0.038019102 11485:0.021392561 11542:0.018493971 11560:0.016784739 11578:0.043074254 11595:0.024682697 11604:0.024682697 11608:0.016784739 11616:0.02241567 11617:0.02241567 11664:0.024682697 11665:0.016784739 11690:0.021392561 11692:0.028514329 11727:0.033569477 11728:0.018493971 11734:0.024682697 11740:0.066533431 11742:0.024682697 11749:0.024682697 11775:0.016784739 11830:0.024682697 11833:0.024682697 11848:0.02241567 11878:0.081711352 11879:0.069922544 11880:0.018493971 11916:0.016963402 11936:0.018493971 11938:0.044831339 11952:0.02241567 11982:0.024682697 11983:0.021392561 11988:0.021392561 11989:0.016784739 11991:0.02241567 12029:0.024682697 12044:0.019009551 12050:0.076038204 12051:0.024682697 12052:0.0095047755 12064:0.016784739 12070:0.024682697 12078:0.042785123 12098:0.016784739 12100:0.024682697 12111:0.018493971 12134:0.016700482 12163:0.018493971 12167:0.049365394 12226:0.042785123 12230:0.036987942 12261:0.016784739 12310:0.021392561 12322:0.016784739 12331:0.021392561 12350:0.024682697 12402:0.016784739 12407:0.0084817009 12413:0.018493971 12430:0.021392561 12443:0.0084817009 12456:0.021392561 12486:0.024682697 12537:0.024682697 12552:0.021392561 12557:0.018493971 12568:0.008740318 12596:0.016784739 12620:0.021392561 12625:0.042785123 12664:0.018493971 12675:0.016784739 12688:0.016784739 12691:0.024682697 12718:0.024682697 12753:0.019009551 12754:0.018493971 12759:0.11405732 12803:0.008740318 12849:0.02241567 12893:0.018493971 12897:0.024682697 12921:0.021392561 12943:0.016784739 12947:0.02241567 12970:0.036987942 12973:0.018493971 12996:0.02241567 13031:0.024682697 13035:0.016784739 13048:0.018493971 13060:0.018493971 13066:0.02241567 13095:0.016784739 13097:0.024682697 13105:0.033623505 13114:0.018493971 13121:0.056039177 13127:0.042785123 13136:0.02241567 13229:0.059569862 13311:0.018493971 13320:0.021392561 13347:0.0084817009 13355:0.018493971 13379:0.024682697 13382:0.083502412 13395:0.12722552 13396:0.011207835 13410:0.018493971 13444:0.016784739 13460:0.016784739 13463:0.016700482 13469:0.016784739 13499:0.024682697 13501:0.02241567 13551:0.02241567 13564:0.018493971 13574:0.021392561 13576:0.016784739 13615:0.02241567 13644:0.024682697 13647:0.008740318 13655:0.024682697 13690:0.008740318 13692:0.026220955 13693:0.021392561 13731:0.024682697 13732:0.011207835 13757:0.021392561 13779:0.0095047755 13804:0.02241567 13835:0.02241567 13881:0.024682697 13885:0.02241567 13898:0.0084817009 13924:0.016784739 13929:0.019009551 13933:0.018493971 13946:0.067138955 13971:0.02241567 13978:0.018493971 13979:0.035457373 13981:0.033926804 14024:0.021392561 14028:0.036987942 14075:0.016784739 14083:0.10455254 14105:0.02241567 14107:0.018493971 14120:0.067853607 14126:0.0084817009 14135:0.024682697 14151:0.018493971 14165:0.033623505 14257:0.024682697 14275:0.018493971 14293:0.024682697 14313:0.067853607 14326:0.019009551 14328:0.024682697 14331:0.036987942 14333:0.018493971 14366:0.042785123 14371:0.042785123 14380:0.055481911 14393:0.02241567 14424:0.033926804 14430:0.016963402 14451:0.016784739 14466:0.021392561 14509:0.036987942 14512:0.018493971 14562:0.016784739 14575:0.021392561 14578:0.066801928 14592:0.021392561 14600:0.018493971 14616:0.018493971 14638:0.021392561 14651:0.016784739 14711:0.02241567 14715:0.021392561 14728:0.042408507 14733:0.02241567 14765:0.018493971 14770:0.016784739 14788:0.021392561 14795:0.044831339 14799:0.0084817009 14806:0.021392561 14810:0.016784739 14853:0.018493971 14856:0.042785123 14858:0.036987942 14872:0.018493971 14884:0.016784739 14893:0.024682697 14958:0.036987942 14959:0.016784739 14974:0.024682697 14979:0.011207835 14982:0.019009551 14987:0.021392561 15040:0.016784739 15091:0.067138955 15093:0.018493971 15116:0.076335311 15144:0.02241567 15146:0.021392561 15178:0.021392561 15190:0.021392561 15265:0.018493971 15266:0.018493971 15273:0.042785123 15305:0.049365394 15319:0.036987942 15332:0.018493971 15353:0.13110477 15359:0.12236446 15373:0.021392561 15376:0.02241567 15394:0.024682697 15449:0.016784739 15457:0.021392561 15466:0.021392561 15473:0.02241567 15482:0.018493971 15484:0.016784739 15526:0.066801928 15529:0.033569477 15535:0.024682697 15579:0.024682697 15603:0.042785123 15605:0.09185265 15646:0.018493971 15648:0.044831339 15656:0.021392561 15666:0.02241567 15694:0.018493971 15734:0.021392561 15764:0.021392561 15768:0.02241567 15780:0.042785123 15782:0.024682697 15818:0.068374939 15824:0.047098365 15825:0.024682697 15831:0.033569477 15835:0.067247011 15836:0.016784739 15843:0.021392561 15854:0.016784739 15878:0.021392561 15880:0.021392561 15894:0.018493971 15902:0.058451686 15918:0.033569477 15924:0.024682697 15946:0.021392561 15948:0.02241567 15978:0.089662679 15992:0.016700482 16026:0.02241567 16030:0.016784739 16079:0.055481911 16081:0.065200791 16125:0.044831339 16136:0.016784739 16148:0.021392561 16157:0.033926804 16158:0.016784739 16174:0.018493971 16180:0.036987942 16197:0.016784739 16237:0.042408507 16243:0.008740318 16262:0.026220955 16270:0.008350241 16293:0.018493971 16296:0.073975883 16328:0.033623505 16334:0.12328619 16337:0.008350241 16354:0.021392561 16361:0.02241567 16383:0.0084817009 
