svm_type epsilon_svr
kernel_type linear
nr_class 2
total_sv 34
rho -0.443524
SV
11 70:0.26225138 117:0.13112569 151:0.15735084 166:0.20980111 181:0.052450277 192:0.10490055 199:0.052450277 217:0.026225138 219:0.15735084 242:0.20980111 245:0.31470168 272:0.26225138 290:0.026225138 321:0.20980111 330:0.20980111 341:0.31470168 344:0.052450277 401:0.026225138 418:0.026225138 474:0.31470168 518:0.052450277 521:0.31470168 536:0.052450277 542:0.15735084 576:0.15735084 612:0.026225138 632:0.052450277 660:0.026225138 737:0.026225138 749:0.13112569 764:0.10490055 870:0.052450277 890:0.18357597 897:0.052450277 905:0.052450277 908:0.10490055 910:0.026225138 961:0.026225138 964:0.15735084 975:0.18357597 977:0.026225138 
11 70:0.23968063 117:0.15978709 151:0.13315591 166:0.18641828 181:0.053262364 192:0.10652473 199:0.053262364 217:0.026631182 219:0.18641828 242:0.18641828 245:0.31957418 272:0.23968063 290:0.026631182 321:0.18641828 330:0.18641828 341:0.31957418 344:0.079893544 401:0.026631182 418:0.026631182 474:0.31957418 518:0.079893544 521:0.31957418 536:0.053262364 542:0.18641828 576:0.18641828 612:0.026631182 632:0.026631182 660:0.026631182 737:0.026631182 749:0.15978709 764:0.10652473 870:0.079893544 890:0.15978709 897:0.079893544 905:0.053262364 908:0.10652473 910:0.026631182 961:0.026631182 964:0.18641828 975:0.15978709 977:0.026631182 
6.562877633123081 70:0.26446587 117:0.096169405 151:0.072127059 166:0.19233881 181:0.024042351 192:0.048084702 199:0.072127059 217:0.024042351 219:0.12021176 242:0.19233881 245:0.36063528 272:0.26446587 290:0.024042351 321:0.19233881 330:0.19233881 341:0.36063528 344:0.072127059 401:0.024042351 418:0.024042351 474:0.36063528 518:0.072127059 521:0.36063528 536:0.024042351 542:0.12021176 576:0.12021176 612:0.024042351 632:0.024042351 660:0.024042351 737:0.024042351 749:0.096169405 764:0.048084702 870:0.024042351 890:0.19233881 897:0.024042351 905:0.072127059 908:0.048084702 910:0.024042351 961:0.024042351 964:0.12021176 975:0.19233881 977:0.024042351 
11 70:0.21821789 117:0.16366342 151:0.16366342 166:0.16366342 181:0.027277237 192:0.13638619 199:0.054554474 217:0.027277237 219:0.21821789 242:0.16366342 245:0.3000496 272:0.21821789 290:0.054554474 321:0.16366342 330:0.16366342 341:0.3000496 344:0.081831709 401:0.027277237 418:0.054554474 474:0.3000496 518:0.081831709 521:0.3000496 536:0.027277237 542:0.21821789 576:0.21821789 612:0.027277237 632:0.027277237 660:0.027277237 737:0.027277237 749:0.16366342 764:0.13638619 870:0.10910895 890:0.16366342 897:0.10910895 905:0.054554474 908:0.13638619 910:0.027277237 961:0.027277237 964:0.21821789 975:0.16366342 977:0.027277237 
-4.255065243017476 70:0.24174689 117:0.13430382 151:0.13430382 166:0.18802536 181:0.026860766 192:0.10744306 199:0.026860766 217:0.026860766 219:0.21488613 242:0.18802536 245:0.29546842 272:0.24174689 290:0.080582298 321:0.18802536 330:0.18802536 341:0.29546842 344:0.080582298 401:0.026860766 418:0.080582298 474:0.29546842 518:0.080582298 521:0.29546842 536:0.026860766 542:0.21488613 576:0.21488613 612:0.026860766 632:0.026860766 660:0.026860766 737:0.026860766 749:0.13430382 764:0.10744306 870:0.080582298 890:0.18802536 897:0.080582298 905:0.026860766 908:0.10744306 910:0.026860766 961:0.026860766 964:0.21488613 975:0.18802536 977:0.026860766 
11 70:0.31876779 116:0.030358838 117:0.12143535 151:0.15179418 166:0.2428707 169:0.091076508 181:0.030358838 192:0.18215302 199:0.045538254 217:0.030358838 219:0.12143535 228:0.030358838 242:0.12143535 245:0.18215302 257:0.015179419 272:0.31876779 321:0.12143535 330:0.2428707 341:0.18215302 344:0.060717676 385:0.030358838 401:0.030358838 474:0.36430603 483:0.015179419 518:0.060717676 521:0.36430603 536:0.030358838 542:0.060717676 576:0.060717676 598:0.091076508 612:0.030358838 619:0.015179419 632:0.060717676 660:0.030358838 735:0.030358838 737:0.030358838 749:0.12143535 764:0.18215302 862:0.015179419 870:0.030358838 890:0.22769128 897:0.030358838 905:0.045538254 908:0.091076508 910:0.045538254 961:0.030358838 964:0.12143535 975:0.22769128 977:0.045538254 
11 70:0.21805571 117:0.16354178 151:0.21805571 166:0.19079874 181:0.054513928 192:0.16354178 199:0.081770889 217:0.027256964 219:0.16354178 242:0.19079874 245:0.29982659 272:0.21805571 321:0.19079874 330:0.19079874 341:0.29982659 344:0.054513928 401:0.027256964 474:0.29982659 518:0.054513928 521:0.29982659 536:0.054513928 542:0.16354178 576:0.16354178 612:0.027256964 632:0.054513928 660:0.027256964 737:0.027256964 749:0.16354178 764:0.16354178 870:0.10902786 890:0.16354178 897:0.10902786 905:0.081770889 908:0.16354178 910:0.027256964 961:0.027256964 964:0.16354178 975:0.16354178 977:0.027256964 
10.57863997100069 70:0.24678382 117:0.16452254 151:0.24678382 166:0.19194297 169:0.054840848 181:0.054840848 192:0.19194297 199:0.027420424 217:0.027420424 219:0.16452254 242:0.19194297 245:0.27420425 272:0.24678382 321:0.19194297 330:0.19194297 341:0.27420425 344:0.054840848 401:0.027420424 474:0.27420425 518:0.054840848 521:0.27420425 536:0.054840848 542:0.16452254 576:0.16452254 598:0.054840848 612:0.027420424 632:0.054840848 660:0.027420424 737:0.027420424 749:0.16452254 764:0.19194297 870:0.082261272 890:0.16452254 897:0.082261272 905:0.027420424 908:0.19194297 910:0.027420424 961:0.027420424 964:0.16452254 975:0.16452254 977:0.027420424 
-11 70:0.22035976 117:0.13772485 151:0.24790472 166:0.16526982 169:0.055089939 181:0.02754497 192:0.19281478 199:0.082634911 217:0.02754497 219:0.16526982 242:0.16526982 245:0.30299467 272:0.22035976 290:0.02754497 321:0.16526982 330:0.16526982 341:0.30299467 344:0.055089939 401:0.02754497 418:0.02754497 474:0.30299467 518:0.055089939 521:0.30299467 536:0.02754497 542:0.16526982 576:0.16526982 598:0.055089939 612:0.02754497 632:0.055089939 660:0.02754497 737:0.02754497 749:0.13772485 764:0.19281478 870:0.082634911 890:0.16526982 897:0.082634911 905:0.082634911 908:0.19281478 910:0.02754497 961:0.02754497 964:0.16526982 975:0.16526982 977:0.02754497 
-11 70:0.23816526 117:0.13231403 151:0.15877683 166:0.15877683 169:0.052925613 192:0.13231403 199:0.079388417 217:0.026462806 219:0.15877683 242:0.15877683 245:0.34401649 272:0.23816526 290:0.052925613 321:0.15877683 330:0.15877683 341:0.34401649 344:0.079388417 401:0.026462806 418:0.052925613 474:0.34401649 518:0.079388417 521:0.34401649 542:0.15877683 576:0.15877683 598:0.052925613 612:0.026462806 632:0.026462806 660:0.026462806 737:0.026462806 749:0.13231403 764:0.13231403 870:0.052925613 890:0.15877683 897:0.052925613 905:0.079388417 908:0.13231403 910:0.026462806 961:0.026462806 964:0.15877683 975:0.15877683 977:0.026462806 
6.0837675943509 70:0.24227186 117:0.13459547 151:0.16151457 166:0.16151457 169:0.05383819 192:0.13459547 199:0.05383819 217:0.026919095 219:0.18843366 242:0.16151457 245:0.32302913 272:0.24227186 290:0.080757283 321:0.16151457 330:0.16151457 341:0.32302913 344:0.080757283 401:0.026919095 418:0.080757283 474:0.32302913 518:0.080757283 521:0.32302913 542:0.18843366 576:0.18843366 598:0.05383819 612:0.026919095 632:0.026919095 660:0.026919095 737:0.026919095 749:0.13459547 764:0.13459547 870:0.05383819 890:0.16151457 897:0.05383819 905:0.05383819 908:0.13459547 910:0.026919095 961:0.026919095 964:0.18843366 975:0.16151457 977:0.026919095 
11 70:0.24641356 117:0.13689642 151:0.21903427 166:0.19165498 169:0.054758567 181:0.027379284 192:0.16427571 199:0.054758567 217:0.027379284 219:0.16427571 242:0.19165498 245:0.30117214 272:0.24641356 290:0.054758567 321:0.19165498 330:0.19165498 341:0.30117214 344:0.054758567 401:0.027379284 418:0.054758567 474:0.30117214 518:0.054758567 521:0.30117214 536:0.027379284 542:0.16427571 576:0.16427571 598:0.054758567 612:0.027379284 632:0.054758567 660:0.027379284 737:0.027379284 749:0.13689642 764:0.16427571 870:0.054758567 890:0.16427571 897:0.054758567 905:0.054758567 908:0.16427571 910:0.027379284 961:0.027379284 964:0.16427571 975:0.16427571 977:0.027379284 
5.844470201907684 70:0.29172137 117:0.15353757 151:0.09212254 166:0.27636763 169:0.030707514 181:0.09212254 192:0.12283006 199:0.030707514 217:0.030707514 219:0.15353757 242:0.13818382 245:0.18424508 272:0.29172137 321:0.13818382 330:0.27636763 341:0.18424508 344:0.12283006 401:0.04606127 474:0.36849016 518:0.12283006 521:0.36849016 536:0.09212254 542:0.076768786 576:0.076768786 598:0.030707514 612:0.030707514 632:0.030707514 660:0.030707514 737:0.030707514 749:0.15353757 764:0.12283006 867:0.030707514 870:0.061415028 890:0.19959885 897:0.061415028 905:0.030707514 908:0.061415028 910:0.030707514 961:0.04606127 964:0.15353757 975:0.19959885 977:0.030707514 1011:0.030707514 
11 70:0.21805571 117:0.16354178 151:0.24531268 166:0.16354178 169:0.027256964 181:0.027256964 192:0.19079874 199:0.081770889 217:0.027256964 219:0.16354178 242:0.16354178 245:0.29982659 272:0.21805571 321:0.16354178 330:0.16354178 341:0.29982659 344:0.054513928 401:0.027256964 474:0.29982659 518:0.054513928 521:0.29982659 536:0.027256964 542:0.16354178 576:0.16354178 598:0.027256964 612:0.027256964 632:0.054513928 660:0.027256964 737:0.027256964 749:0.16354178 764:0.19079874 870:0.10902786 890:0.16354178 897:0.10902786 905:0.081770889 908:0.19079874 910:0.027256964 961:0.027256964 964:0.16354178 975:0.16354178 977:0.027256964 
-11 70:0.26745236 117:0.13372618 151:0.18721664 166:0.21396188 169:0.026745236 181:0.053490471 192:0.13372618 199:0.026745236 217:0.026745236 219:0.16047141 242:0.21396188 245:0.29419759 272:0.26745236 290:0.026745236 321:0.21396188 330:0.21396188 341:0.29419759 344:0.053490471 401:0.026745236 418:0.026745236 474:0.29419759 518:0.053490471 521:0.29419759 536:0.053490471 542:0.16047141 576:0.16047141 598:0.026745236 612:0.026745236 632:0.053490471 660:0.026745236 737:0.026745236 749:0.13372618 764:0.13372618 870:0.053490471 890:0.18721664 897:0.053490471 905:0.026745236 908:0.13372618 910:0.026745236 961:0.026745236 964:0.16047141 975:0.18721664 977:0.026745236 
-11 70:0.26745236 117:0.13372618 151:0.18721664 166:0.21396188 169:0.026745236 181:0.053490471 192:0.13372618 199:0.026745236 217:0.026745236 219:0.16047141 242:0.21396188 245:0.29419759 272:0.26745236 290:0.026745236 321:0.21396188 330:0.21396188 341:0.29419759 344:0.053490471 401:0.026745236 418:0.026745236 474:0.29419759 518:0.053490471 521:0.29419759 536:0.053490471 542:0.16047141 576:0.16047141 598:0.026745236 612:0.026745236 632:0.053490471 660:0.026745236 737:0.026745236 749:0.13372618 764:0.13372618 870:0.053490471 890:0.18721664 897:0.053490471 905:0.026745236 908:0.13372618 910:0.026745236 961:0.026745236 964:0.16047141 975:0.18721664 977:0.026745236 
-11 7:0.015939418 40:0.015939418 52:0.015939418 70:0.30284894 113:0.015939418 117:0.12751535 151:0.095636509 166:0.22315185 169:0.031878836 181:0.031878836 192:0.12751535 199:0.063757673 217:0.031878836 219:0.22315185 242:0.11157592 245:0.19127302 272:0.25503069 290:0.095636509 291:0.047818255 321:0.11157592 330:0.22315185 341:0.19127302 344:0.095636509 401:0.031878836 418:0.095636509 419:0.047818255 474:0.38254604 518:0.095636509 521:0.38254604 536:0.031878836 542:0.11157592 576:0.11157592 598:0.031878836 612:0.031878836 632:0.031878836 660:0.031878836 665:0.015939418 727:0.015939418 737:0.031878836 749:0.12751535 764:0.12751535 776:0.047818255 870:0.063757673 890:0.19127302 897:0.063757673 905:0.063757673 908:0.063757673 910:0.047818255 961:0.031878836 964:0.22315185 975:0.19127302 977:0.047818255 
11 70:0.23394386 117:0.077981286 151:0.15596257 166:0.2079501 169:0.051987525 181:0.025993763 192:0.12996881 199:0.077981286 217:0.025993763 219:0.10397505 242:0.2079501 245:0.33791891 272:0.23394386 290:0.025993763 321:0.2079501 330:0.2079501 341:0.33791891 344:0.077981286 401:0.025993763 418:0.025993763 474:0.33791891 518:0.077981286 521:0.33791891 536:0.025993763 542:0.10397505 576:0.10397505 598:0.051987525 612:0.025993763 632:0.025993763 660:0.025993763 737:0.025993763 749:0.077981286 764:0.12996881 870:0.051987525 890:0.2079501 897:0.051987525 905:0.077981286 908:0.12996881 910:0.025993763 961:0.025993763 964:0.10397505 975:0.2079501 977:0.025993763 
11 70:0.19384708 117:0.16615464 151:0.22153951 166:0.1384622 169:0.055384878 192:0.19384708 199:0.083077319 217:0.027692439 219:0.19384708 242:0.1384622 245:0.30461684 272:0.19384708 290:0.055384878 321:0.1384622 330:0.1384622 341:0.30461684 344:0.083077319 401:0.027692439 418:0.055384878 474:0.30461684 518:0.083077319 521:0.30461684 542:0.19384708 576:0.19384708 598:0.055384878 612:0.027692439 632:0.027692439 660:0.027692439 737:0.027692439 749:0.16615464 764:0.19384708 870:0.11076976 890:0.1384622 897:0.11076976 905:0.083077319 908:0.19384708 910:0.027692439 961:0.027692439 964:0.19384708 975:0.1384622 977:0.027692439 
-11 70:0.26726124 117:0.1572125 151:0.11004875 166:0.25154001 169:0.031442501 181:0.062885001 192:0.1572125 199:0.062885001 217:0.031442501 219:0.1572125 242:0.12577 245:0.18865499 272:0.26726124 321:0.12577 330:0.25154001 341:0.18865499 344:0.12577 401:0.047163747 474:0.37730998 518:0.12577 521:0.37730998 536:0.062885001 542:0.078606248 576:0.078606248 598:0.031442501 612:0.031442501 632:0.031442501 660:0.031442501 737:0.031442501 749:0.1572125 764:0.1572125 867:0.031442501 870:0.094327495 890:0.20437625 897:0.094327495 905:0.062885001 908:0.078606248 910:0.031442501 961:0.047163747 964:0.1572125 975:0.20437625 977:0.031442501 1011:0.031442501 
-11 70:0.23934139 117:0.13296744 151:0.2127479 166:0.18615441 169:0.026593488 181:0.026593488 192:0.15956092 199:0.079780459 217:0.026593488 219:0.13296744 242:0.18615441 245:0.31912184 272:0.23934139 321:0.18615441 330:0.18615441 341:0.31912184 344:0.053186975 401:0.026593488 474:0.31912184 518:0.053186975 521:0.31912184 536:0.026593488 542:0.13296744 576:0.13296744 598:0.026593488 612:0.026593488 632:0.053186975 660:0.026593488 737:0.026593488 749:0.13296744 764:0.15956092 870:0.079780459 890:0.18615441 897:0.079780459 905:0.079780459 908:0.15956092 910:0.026593488 961:0.026593488 964:0.13296744 975:0.18615441 977:0.026593488 
-11 70:0.23934139 117:0.13296744 151:0.2127479 166:0.18615441 169:0.026593488 181:0.026593488 192:0.15956092 199:0.079780459 217:0.026593488 219:0.13296744 242:0.18615441 245:0.31912184 272:0.23934139 321:0.18615441 330:0.18615441 341:0.31912184 344:0.053186975 401:0.026593488 474:0.31912184 518:0.053186975 521:0.31912184 536:0.026593488 542:0.13296744 576:0.13296744 598:0.026593488 612:0.026593488 632:0.053186975 660:0.026593488 737:0.026593488 749:0.13296744 764:0.15956092 870:0.079780459 890:0.18615441 897:0.079780459 905:0.079780459 908:0.15956092 910:0.026593488 961:0.026593488 964:0.13296744 975:0.18615441 977:0.026593488 
-11 70:0.21805571 117:0.16354178 151:0.24531268 166:0.16354178 169:0.027256964 181:0.027256964 192:0.19079874 199:0.081770889 217:0.027256964 219:0.16354178 242:0.16354178 245:0.29982659 272:0.21805571 321:0.16354178 330:0.16354178 341:0.29982659 344:0.054513928 401:0.027256964 474:0.29982659 518:0.054513928 521:0.29982659 536:0.027256964 542:0.16354178 576:0.16354178 598:0.027256964 612:0.027256964 632:0.054513928 660:0.027256964 737:0.027256964 749:0.16354178 764:0.19079874 870:0.10902786 890:0.16354178 897:0.10902786 905:0.081770889 908:0.19079874 910:0.027256964 961:0.027256964 964:0.16354178 975:0.16354178 977:0.027256964 
-11 70:0.21805571 117:0.16354178 151:0.24531268 166:0.16354178 169:0.027256964 181:0.027256964 192:0.19079874 199:0.081770889 217:0.027256964 219:0.16354178 242:0.16354178 245:0.29982659 272:0.21805571 321:0.16354178 330:0.16354178 341:0.29982659 344:0.054513928 401:0.027256964 474:0.29982659 518:0.054513928 521:0.29982659 536:0.027256964 542:0.16354178 576:0.16354178 598:0.027256964 612:0.027256964 632:0.054513928 660:0.027256964 737:0.027256964 749:0.16354178 764:0.19079874 870:0.10902786 890:0.16354178 897:0.10902786 905:0.081770889 908:0.19079874 910:0.027256964 961:0.027256964 964:0.16354178 975:0.16354178 977:0.027256964 
1.871682019186689 70:0.21426864 117:0.16070147 151:0.21426864 166:0.16070147 181:0.02678358 192:0.16070147 199:0.10713432 217:0.02678358 219:0.16070147 242:0.16070147 245:0.32140294 272:0.21426864 321:0.16070147 330:0.16070147 341:0.32140294 344:0.05356716 401:0.02678358 474:0.32140294 518:0.05356716 521:0.32140294 536:0.02678358 542:0.16070147 576:0.16070147 612:0.02678358 632:0.05356716 660:0.02678358 737:0.02678358 749:0.16070147 764:0.16070147 870:0.10713432 890:0.16070147 897:0.10713432 905:0.10713432 908:0.16070147 910:0.02678358 961:0.02678358 964:0.16070147 975:0.16070147 977:0.02678358 
-0.3249725112127426 70:0.2206949 117:0.13793431 151:0.2206949 166:0.16552117 169:0.027586862 181:0.027586862 192:0.16552117 199:0.082760587 217:0.027586862 219:0.19310804 242:0.16552117 245:0.3034555 272:0.2206949 290:0.055173725 321:0.16552117 330:0.16552117 341:0.3034555 344:0.055173725 401:0.027586862 418:0.055173725 474:0.3034555 518:0.055173725 521:0.3034555 536:0.027586862 542:0.19310804 576:0.19310804 598:0.027586862 612:0.027586862 632:0.055173725 660:0.027586862 737:0.027586862 749:0.13793431 764:0.16552117 870:0.082760587 890:0.16552117 897:0.082760587 905:0.082760587 908:0.16552117 910:0.027586862 961:0.027586862 964:0.19310804 975:0.16552117 977:0.027586862 
-11 70:0.24531268 117:0.16354178 151:0.19079874 166:0.16354178 169:0.054513928 181:0.027256964 192:0.16354178 199:0.027256964 217:0.027256964 219:0.19079874 242:0.16354178 245:0.29982659 272:0.24531268 290:0.027256964 321:0.16354178 330:0.16354178 341:0.29982659 344:0.081770889 401:0.027256964 418:0.027256964 474:0.29982659 518:0.081770889 521:0.29982659 536:0.027256964 542:0.19079874 576:0.19079874 598:0.054513928 612:0.027256964 632:0.027256964 660:0.027256964 737:0.027256964 749:0.16354178 764:0.16354178 870:0.081770889 890:0.16354178 897:0.081770889 905:0.027256964 908:0.16354178 910:0.027256964 961:0.027256964 964:0.19079874 975:0.16354178 977:0.027256964 
11 70:0.24567799 117:0.13648777 151:0.21838044 166:0.16378532 169:0.054595109 192:0.16378532 199:0.054595109 217:0.027297555 219:0.19108288 242:0.16378532 245:0.30027309 272:0.24567799 290:0.081892662 321:0.16378532 330:0.16378532 341:0.30027309 344:0.054595109 401:0.027297555 418:0.081892662 474:0.30027309 518:0.054595109 521:0.30027309 542:0.19108288 576:0.19108288 598:0.054595109 612:0.027297555 632:0.054595109 660:0.027297555 737:0.027297555 749:0.13648777 764:0.16378532 870:0.054595109 890:0.16378532 897:0.054595109 905:0.054595109 908:0.16378532 910:0.027297555 961:0.027297555 964:0.19108288 975:0.16378532 977:0.027297555 
11 70:0.2475294 117:0.1650196 151:0.22002614 166:0.19252287 169:0.027503267 181:0.055006534 192:0.1650196 199:0.027503267 217:0.027503267 219:0.19252287 242:0.19252287 245:0.27503267 272:0.2475294 290:0.027503267 321:0.19252287 330:0.19252287 341:0.27503267 344:0.055006534 401:0.027503267 418:0.027503267 474:0.27503267 518:0.055006534 521:0.27503267 536:0.055006534 542:0.19252287 576:0.19252287 598:0.027503267 612:0.027503267 632:0.055006534 660:0.027503267 737:0.027503267 749:0.1650196 764:0.1650196 870:0.082509801 890:0.1650196 897:0.082509801 905:0.027503267 908:0.1650196 910:0.027503267 961:0.027503267 964:0.19252287 975:0.1650196 977:0.027503267 
-11 70:0.22378169 117:0.13986357 151:0.22378169 166:0.19580898 169:0.027972711 181:0.055945423 192:0.16783628 199:0.055945423 217:0.027972711 219:0.19580898 242:0.19580898 245:0.27972713 272:0.22378169 290:0.055945423 321:0.19580898 330:0.19580898 341:0.27972713 344:0.055945423 401:0.027972711 418:0.055945423 474:0.27972713 518:0.055945423 521:0.27972713 536:0.055945423 542:0.19580898 576:0.19580898 598:0.027972711 612:0.027972711 632:0.055945423 660:0.027972711 737:0.027972711 749:0.13986357 764:0.16783628 870:0.083918139 890:0.16783628 897:0.083918139 905:0.055945423 908:0.16783628 910:0.027972711 961:0.027972711 964:0.19580898 975:0.16783628 977:0.027972711 
-7.72996900961344 70:0.2682209 117:0.13411045 151:0.18775462 166:0.18775462 169:0.026822088 181:0.026822088 192:0.13411045 199:0.026822088 217:0.026822088 219:0.18775462 242:0.18775462 245:0.29504299 272:0.2682209 290:0.053644177 321:0.18775462 330:0.18775462 341:0.29504299 344:0.053644177 401:0.026822088 418:0.053644177 474:0.29504299 518:0.053644177 521:0.29504299 536:0.026822088 542:0.18775462 576:0.18775462 598:0.026822088 612:0.026822088 632:0.053644177 660:0.026822088 737:0.026822088 749:0.13411045 764:0.13411045 870:0.053644177 890:0.18775462 897:0.053644177 905:0.026822088 908:0.13411045 910:0.026822088 961:0.026822088 964:0.18775462 975:0.18775462 977:0.026822088 
4.110453344096386 70:0.22273842 117:0.13921151 151:0.22273842 166:0.16705382 169:0.027842302 181:0.027842302 192:0.16705382 199:0.055684604 217:0.027842302 219:0.22273842 242:0.16705382 245:0.27842301 272:0.22273842 290:0.083526909 321:0.16705382 330:0.16705382 341:0.27842301 344:0.055684604 401:0.027842302 418:0.083526909 474:0.27842301 518:0.055684604 521:0.27842301 536:0.027842302 542:0.22273842 576:0.22273842 598:0.027842302 612:0.027842302 632:0.055684604 660:0.027842302 737:0.027842302 749:0.13921151 764:0.16705382 870:0.083526909 890:0.16705382 897:0.083526909 905:0.055684604 908:0.16705382 910:0.027842302 961:0.027842302 964:0.22273842 975:0.16705382 977:0.027842302 
-11 70:0.22273842 117:0.13921151 151:0.22273842 166:0.16705382 169:0.027842302 181:0.027842302 192:0.16705382 199:0.055684604 217:0.027842302 219:0.22273842 242:0.16705382 245:0.27842301 272:0.22273842 290:0.083526909 321:0.16705382 330:0.16705382 341:0.27842301 344:0.055684604 401:0.027842302 418:0.083526909 474:0.27842301 518:0.055684604 521:0.27842301 536:0.027842302 542:0.22273842 576:0.22273842 598:0.027842302 612:0.027842302 632:0.055684604 660:0.027842302 737:0.027842302 749:0.13921151 764:0.16705382 870:0.083526909 890:0.16705382 897:0.083526909 905:0.055684604 908:0.16705382 910:0.027842302 961:0.027842302 964:0.22273842 975:0.16705382 977:0.027842302 
-0.7418839998217779 70:0.22308455 117:0.13942784 151:0.22308455 166:0.22308455 169:0.027885569 181:0.055771139 192:0.16731341 199:0.055771139 217:0.027885569 219:0.16731341 242:0.22308455 245:0.27885568 272:0.22308455 290:0.055771139 321:0.22308455 330:0.22308455 341:0.27885568 344:0.055771139 401:0.027885569 418:0.055771139 474:0.27885568 518:0.055771139 521:0.27885568 536:0.055771139 542:0.16731341 576:0.16731341 598:0.027885569 612:0.027885569 632:0.055771139 660:0.027885569 737:0.027885569 749:0.13942784 764:0.16731341 870:0.083656706 890:0.16731341 897:0.083656706 905:0.055771139 908:0.16731341 910:0.027885569 961:0.027885569 964:0.16731341 975:0.16731341 977:0.027885569 
